0.0173336 0.104574 -0.00338211 0.192695 0.255124 0.0854684 0.221376 0.141529 -0.00363715 -0.0915482 -0.0537726 -0.0203321 0.00113594 -0.0544351 -0.0554577 0.104338 0.169068 -0.0193575 0.0654895 0.225306 0.158695 -0.00698528 0.0248778 0.0756823 -0.0580624 0.130892 0.189911 -0.107187 0.182524 0.205561 0.00972733 0.0166554 0.117441 0.190752 0.103375 -0.0124583 -0.0538681 0.0320922 0.0901339 0.166125 0.119594 -0.227367 -0.463228 -0.0591919 0.285448 0.178991 0.0577318 0.0779055 0.0745649 0.0892227 0.237535 0.286003 -0.178787 -0.147394 -0.262468 -0.413144 -0.0776097 -0.0104685 -0.0785258 0.112532 -0.049915 0.184878 0.195955 -0.0623627 -0.0371657 -0.0912801 -0.155222 -0.12422 -0.19221 0.0130312 -0.133311 0.100269 0.0209024 0.0765757 -0.0950783 -0.306997 -0.132352 -0.0636 0.267888 0.19834 0.165584 -0.0849909 -0.083668 0.0583338 0.0893067 -0.0483242 -0.0533331 -0.089353 -0.139047 0.0410442 0.214119 0.183442 0.0663042 -0.0398499 0.0470312 -0.0128719 -0.179418 -0.251218 -0.382649 -0.219835 0.0167406 -0.0576129 -0.142052 0.294474 0.0505702 -0.163851 -0.0260885 -0.0245106 -0.120283 -0.38685 -0.416622 -0.212716 -0.160284 0.00520534 -0.0444634 0.0911819 -0.00925426 -0.150117 0.0630683 0.103553 
-0.0151267 0.0412467 0.0337874 0.0771616 0.0015377 -0.110905 -0.234102 -0.146156 -0.428456 -0.412854 -0.146761 0.0553912 -0.0719037 -0.0169907 -0.0442116 0.0125983 0.0198093 -0.202544 -0.222446 -0.250545 -0.529093 -0.228325 -0.0869475 0.0302369 0.0426664 0.104734 0.156408 0.119766 0.0719802 -0.421184 -0.360792 0.247937 -0.18953 -0.10075 0.0407624 -0.0514561 0.0358883 0.0348845 0.221245 0.131356 0.0752088 -0.0145597 -0.209357 0.371675 0.0379387 0.183725 0.11607 -0.0931521 -0.0479694 -0.000921257 0.0404757 -0.161466 -0.0162168 0.0772387 -0.146523 -0.118687 -0.0762307 0.180511 0.0804892 -0.0870597 -0.0248263 0.0893268 -0.024599 -0.293935 -0.110419 -0.152866 -0.0654174 -0.261597 0.16998 0.411661 0.208555 -0.0932089 0.00307588 0.0343725 -0.124451 -0.336602 -0.04754 0.0183576 -0.100612 0.285609 0.630183 0.493916 0.0774726 0.0536151 0.0385349 -0.00600615 -0.296027 -0.101503 -0.204233 0.0685964 -0.0404728 -0.0684626 0.0826109 0.334255 -0.0543568 -0.0631714 0.146958 -0.0944651 -0.329162 0.0220556 0.2851 0.646515 0.301143 0.194689 -0.364085 -0.252946 -0.104913 -0.0587337 0.0580384 0.0194962 0.00699377 0.111559 0.110586 0.217586 0.653824 0.158083 -0.428552 -0.241666 0.0500889 0.0461393 
0.133043 0.0102544 -0.051971 0.10173 0.0291449 -0.15894 -0.00734358 0.133162 0.124215 -0.0228762 -0.139703 -0.000124842 -0.124993 -0.183263 -0.0792379 -0.0315574 -0.0761142 -0.273634 -0.403348 -0.00939703 -0.136681 -0.145916 -0.222258 -0.1361 -0.145882 -0.185852 0.163999 -0.106907 0.00739343 -0.112194 -0.201101 -0.200892 -0.120309 0.000708001 -0.126941 -0.0138172 -0.174711 -0.1253 0.177276 -0.110581 -0.0561059 -0.121589 0.00896216 -0.384095 -0.371953 -0.130114 -0.120024 0.103615 -0.0422168 -0.123176 0.163574 0.264652 -0.000801236 -0.129682 -0.33067 -0.0188348 -0.283564 -0.122682 -0.00596752 0.218743 0.018822 -0.237468 0.14103 0.140341 -0.0969285 -0.115411 -0.100313 0.270886 0.287184 -0.134827 0.00291236 0.15215 0.0407339 -0.0552055 -0.0619123 0.145674 -0.204873 -0.127947 0.0430707 0.283218 0.289143 0.14995 0.175771 0.228016 0.0452183 -0.103483 -0.183601 -0.0577875 0.00397922 0.339265 0.171973 0.178595 0.169341 -0.211924 0.0046069 0.0842286 -0.00846113 -0.213182 0.335002 -0.0360379 0.0692993 -0.0445893 0.118636 -0.00338211 -0.286199 0.0153756 -0.039676 0.0780099 0.0782665 -0.0754207 0.246023 0.0310624 -0.0289872 -0.0816487 -0.0961188 -0.273541 0.177372 0.201997 0.0284038 0.129061 
0.0413003 0.277949 0.28101 0.135808 -0.287893 -0.284204 -0.503893 0.095214 0.154867 0.241974 0.04524 -0.097454 -0.0365366 0.218129 0.55371 0.26219 -0.00588065 -0.248898 -0.512025 -0.515176 0.175119 0.291515 0.0250698 -0.0728379 -0.0853813 0.000687847 0.297373 -0.0490892 -0.195757 -0.22591 -0.30999 -0.26799 0.0249636 0.341253 -0.0487791 0.0406295 -0.0443967 -0.127062 0.168386 -0.137833 0.137361 0.357918 0.268603 -0.0782738 0.165142 0.0267964 0.0158173 0.0387662 -0.179725 -0.259135 0.190567 0.0744565 -0.132098 -0.464432 -0.545825 -0.180676 0.0689925 0.23911 0.0672484 0.037196 -0.196029 -0.209174 -0.0357078 0.242227 0.141403 -0.378875 -0.230087 -0.443961 -0.04803 -0.107643 0.0684142 0.0483102 -0.0268169 -0.253889 0.0162555 0.071225 0.112888 0.294196 0.0712454 -0.202585 -0.0193747 -0.0922548 0.0424135 0.000715828 0.0574649 -0.117389 -0.0489627 -0.297007 -0.00430069 0.126048 0.405603 -0.215273 -0.00653774 -0.201721 -0.0201945 -0.075647 0.0808576 0.120746 0.0583229 -0.126733 0.0620604 -0.191452 0.210345 -0.187351 -0.0349575 -0.0722338 0.0596504 0.0543759 -0.023978 0.0417788 -0.0416399 -0.138126 0.0972968 0.134851 -0.250426 -0.26241 -0.0108522 0.0360129 -0.0221939 -0.0271871 
-0.00973735 0.0473631 -0.0887813 0.117472 0.184543 0.242251 0.361793 0.453336 0.11236 -0.117666 -0.0895361 -0.066057 -0.194363 -0.196085 0.0490709 0.00876334 0.0133617 0.208528 0.180119 0.35079 0.210376 -0.149866 -0.244132 -0.197612 -0.156701 -0.228237 -0.179834 -0.0711641 0.0842367 0.199696 0.389447 0.111443 -0.0176098 0.0444318 -0.207235 -0.126136 -0.118554 -0.0817716 -0.139021 -0.118497 -0.288368 -0.0776016 0.334217 -0.143167 -0.0256977 0.01389 -0.125015 0.0380378 -0.102462 -0.00913844 -0.189787 0.0675865 -0.220118 -0.0433341 0.185156 0.030745 -0.103908 4.87038e-05 -0.145516 0.0118655 -0.0776573 0.0318389 0.026197 0.348823 0.0808139 0.0356585 0.0193409 -0.321397 -0.206694 -0.200585 -0.0544579 0.0930118 0.0334872 0.0943839 0.0138624 0.33745 0.0482147 0.00122793 -0.068872 -0.172436 -0.342351 -0.247195 0.0283183 0.0165105 -0.0206147 0.10322 0.0436987 -0.104839 0.0204309 0.221133 0.0553406 0.0828927 -0.0284796 -0.284904 0.0406643 0.123729 0.0452358 0.146579 0.26735 0.188094 -0.05619 -0.0736261 0.250872 0.167078 0.106282 0.231292 0.0735777 0.0598704 0.034971 0.1255 0.113474 -0.0436598 -0.147603 0.0908057 0.221655 0.145177 0.429748 0.236541 0.126778 -0.00932709 
-0.048155 0.187393 0.114767 0.0360322 0.209821 0.306043 0.0808128 0.361756 0.238117 -0.015163 -0.112263 0.0136837 0.0294829 -0.00484544 -0.0411924 -0.0735183 0.147435 0.105293 0.0793416 -0.0771307 0.115346 0.0800115 0.0611906 0.0811215 0.0846771 -0.0466078 -0.259408 0.0095601 -0.100718 0.132839 0.320233 -0.0738595 -0.17273 -0.0232044 -0.056785 0.069476 -0.0188536 -0.167991 -0.151323 -0.355913 -0.128309 0.113845 0.162807 -0.169088 0.0110012 -0.0633677 -0.156356 0.0862712 0.00777621 -0.108038 -0.212143 -0.0980635 0.427843 0.31662 0.369639 0.119908 -0.257255 -0.40241 -0.256685 -0.00651344 0.0226146 -0.169733 -0.0844397 0.107087 0.498387 0.230247 0.0908807 -0.0155573 -0.606302 -0.64851 -0.250132 -0.0297749 -0.0301018 -0.132319 -0.0993324 0.111188 0.181617 0.10404 0.0782516 -0.253217 -0.643331 -0.346565 -0.162134 0.045805 -0.047357 -0.0588987 -0.157643 0.0483543 0.159743 0.025801 -0.130227 -0.265153 -0.284886 -0.28822 -0.0457618 -0.0231978 -0.0987426 -0.145717 -0.00669502 0.0346082 0.0709985 -0.146898 -0.0544612 0.133891 -0.185998 -0.104583 -0.068109 0.00637127 -0.0816373 -0.0386838 -0.0651155 0.2051 0.13114 0.101283 0.064002 -0.177363 -0.009144 -0.168949 0.00884934 -0.0302378 
-0.00748043 -0.0586998 0.00949038 0.0900738 0.0283482 -0.0603542 -0.0531776 -0.132382 -0.0743934 -0.121147 0.0703147 -0.00579798 0.0561917 0.112523 -0.0427756 0.0900536 -0.107431 -0.149574 -0.208568 0.0038394 0.111401 0.194257 0.100026 0.0424293 0.0476296 0.0492607 -0.075967 -0.323122 -0.29199 -0.0699699 -0.120878 0.087397 -0.123132 0.317896 0.183217 0.118653 0.100985 0.115982 -0.14679 -0.270092 -0.325972 -0.058479 -0.176587 0.410946 0.435599 0.247767 0.227178 0.050106 0.0654124 -0.136956 0.0999485 -0.17635 -0.001076 -0.42299 -0.185108 0.0455873 0.446144 0.0128587 0.0277359 0.0064436 0.0225908 -0.119633 -0.0185683 0.056354 0.00767069 -0.236165 -0.479946 -0.284144 -0.228138 -0.133976 0.0310208 0.0157668 -0.0351601 -0.00498192 0.165146 0.307357 0.227042 -0.218628 -0.717768 -0.0796578 0.122482 -0.0787074 0.017336 0.0752158 0.0327016 -0.0240939 -0.128197 -0.0258215 0.0373435 -0.204366 0.0210862 0.0699923 0.16781 -0.0952042 -0.0852733 0.0404817 0.109673 0.00541063 -0.0897183 -0.089396 0.25399 -0.00569997 0.112299 0.0400453 0.058306 -0.201088 -0.0687069 -0.0861917 -0.0102876 -0.00723961 -0.262603 0.00582306 0.0236889 0.0500382 0.246848 0.208336 0.0278658 -0.174841 -0.0453547 0.0455512 
0.0181072 0.0540031 0.0299051 0.100785 0.156715 0.0429319 -0.021817 0.0579327 0.0731126 -0.0154028 0.088492 -0.101869 -0.175419 0.0327387 0.103651 0.166396 -0.111126 -0.00405063 0.0831411 0.0259521 -0.01362 0.0526113 0.0396175 -0.0660342 -0.179487 -0.0321001 -0.0966554 0.023424 -0.130103 0.0276117 -0.159681 0.0845436 0.0706046 0.137653 0.000380085 -0.0640362 -0.0370095 -0.112727 -0.0684065 0.172957 0.102333 -0.0126344 -0.0631881 0.340967 0.165098 -0.0888296 -0.0325001 0.060783 0.0219672 -0.165363 -0.325402 -0.185197 0.0725989 0.208007 0.610357 0.32714 -0.133443 -0.0788192 -0.0219653 -0.0299004 0.070761 -0.195531 -0.322064 -0.341522 0.151046 0.128546 0.557667 0.288678 -0.23578 -0.232533 0.0380401 -0.0320725 0.00939246 -0.252716 -0.303656 -0.405452 0.0416305 0.28641 0.0186372 -0.0607923 0.0245833 0.0167809 0.00435155 -0.0816751 0.0844137 -0.0849864 -0.278115 -0.256625 0.0240673 0.239404 -0.208223 -0.299797 -0.0783637 0.123409 -0.0286395 -0.0456912 0.218625 0.14763 -0.0111392 -0.421132 -0.0567131 0.305283 -0.317221 -0.500126 -0.287255 -0.0236877 -0.0125225 -0.0605379 0.076036 0.194047 0.068194 -0.0339632 0.101546 0.419142 0.21921 -0.177845 -0.642628 -0.0915923 0.136996 -0.0142003 
0.00167141 0.110317 0.138633 -0.0717439 -0.203937 -0.0211179 -0.181097 -0.00778426 -0.060495 0.0201776 0.104501 0.0537288 -0.0505662 -0.0200209 -0.151579 -0.103615 -0.0337507 0.223018 -0.0349649 -0.320721 -0.297306 -0.188676 -0.091415 0.0451374 -0.00567037 -0.042391 -0.0898087 0.0689156 0.0757705 0.0348407 -0.0354717 -0.304864 -0.280031 0.0374742 -0.0671157 0.0337342 -0.0168073 -0.00876871 0.115103 -0.0195344 0.199843 -0.29312 -0.31389 -0.170636 -0.137865 -0.220522 -0.113933 0.0238178 0.0590048 -0.00294176 0.0215961 0.323633 0.305661 0.00285385 0.164711 0.229244 -0.165061 -0.220105 0.0385659 0.0340883 0.0698034 0.035814 -0.023475 0.422055 0.36993 -0.0619186 0.374543 0.471794 0.0594799 -0.130554 -0.0356189 0.0376765 -0.0567584 -0.00282274 0.0220768 -0.00506173 -0.020554 -0.104435 0.173724 0.109739 -0.0968568 0.0359673 0.0246325 -0.086177 0.0518379 0.0848716 0.0067495 -0.0477297 0.153924 -0.166567 0.0177878 -0.218688 0.196758 0.172654 -0.0720657 0.0162344 0.00776283 0.128895 0.289175 0.0575423 -0.0271836 -0.00878802 0.0033779 0.0837021 -0.00125764 0.14073 -0.0131014 0.0668727 -0.0430029 0.125102 0.186844 0.0891798 0.153734 0.0763389 -0.183604 -0.128317 0.196825 0.139051 -0.0733781 -0.0273667 
-0.278053 -0.41882 -0.344357 -0.0616508 0.23227 0.466875 0.479679 0.240916 0.251741 -0.058129 0.00145423 0.0144861 -0.150896 -0.188159 -0.0995805 -0.0253425 0.0545391 0.440745 0.359558 0.294005 0.176673 -0.0520824 -0.224182 -0.0201898 -0.0549905 -0.146647 -0.27162 -0.128959 0.222455 0.511431 0.417889 -0.0620689 -0.00748727 -0.0536147 -0.162321 -0.0421188 -0.0540571 -0.0812833 -0.10926 0.0563119 0.0972924 -0.172205 0.0814572 -0.135747 -0.233369 -0.0678069 -0.185043 0.0395638 -0.0432921 0.07802 -0.0414713 -0.440012 -0.488542 -0.307646 -0.0728034 0.0500717 -0.290627 0.0901323 -0.0858968 -0.0422189 0.0605493 0.116117 -0.117134 -0.220204 -0.419104 -0.252189 0.0360708 -0.0272666 -0.0892441 0.0397127 0.0713047 -0.0560655 0.00893677 0.0618499 0.0535011 0.0388758 0.0928085 -0.189636 0.215658 0.0640045 -0.152744 -0.160966 -0.0105975 0.0710249 -0.00427157 0.158105 0.0896806 0.275069 0.645552 0.147643 0.16786 0.288868 -0.0960154 -0.149251 -0.0597861 0.0617932 -0.166986 0.127253 0.033887 0.116725 -0.0676458 -0.254952 -0.11332 -0.0315847 0.255401 0.168366 0.0198823 0.0281768 0.0749149 -0.0669356 -0.114679 -0.195339 -0.176147 0.123776 -0.095055 0.0156098 0.453761 0.122517 0.162897 -0.0494186 
-0.059751 -0.0981643 -0.0305124 0.178146 0.0724584 0.130732 0.113863 -0.278732 -0.402924 -0.250828 -0.178997 -0.0314028 -0.0427721 0.153656 0.0552764 0.174032 0.141089 0.147276 -0.0472524 -0.264856 -0.595195 -0.40771 -0.0472545 -0.0234776 0.0324598 -0.0229003 -0.133525 -0.279131 -0.105492 0.107349 0.101419 -0.220074 -0.262489 -0.228142 0.0508188 0.0233956 0.0214884 0.0541902 -0.0692104 -0.239937 -0.137253 0.313572 0.385722 -0.124041 -0.254648 0.234511 0.186355 -0.036549 0.03566 -0.0825176 -0.0726065 -0.472024 -0.397333 -0.302053 -0.297493 -0.266353 0.0843864 0.344009 0.0981171 -0.0466527 -0.0340406 -0.117505 -0.226928 -0.311122 -0.292258 -0.171325 -0.442135 -0.295479 0.150575 0.298303 0.0926868 -0.0186802 -0.0626359 -0.213435 -0.0991337 0.189497 0.140332 0.0746224 0.17096 -0.0189806 0.000333951 0.203948 0.0894167 -0.055715 0.0118875 -0.0559332 -0.0288281 -0.141387 -0.0960302 0.183489 0.198177 0.107342 0.0222803 -0.0080172 -0.104286 -0.0619798 0.0370775 0.34059 0.353741 -0.0555896 -0.0577688 0.16446 0.167683 -0.110307 0.105573 -0.0936919 -0.0141626 -0.0804416 0.168516 0.153712 0.28201 0.0491854 -0.142806 -0.0957943 0.108432 0.091795 0.210118 0.0170486 0.0380047 -0.0939899 
-0.145083 -0.181153 -0.248766 -0.201658 -0.111341 0.0937426 -0.214047 -0.0135593 0.00879735 -0.105196 -0.0792672 -0.0830046 0.0225672 0.141484 -0.38524 -0.115557 -0.114248 0.209568 0.105793 -0.0472501 -0.284104 -0.17752 0.0415394 0.0300664 0.0737599 0.340483 -0.120947 -0.379864 -0.0891925 0.0186088 0.129797 -0.0831654 -0.109028 0.0417093 0.0462256 -0.0787948 -0.0321013 0.130743 -0.114455 -0.185652 -0.131152 0.0384896 0.0296632 0.308539 -0.116651 0.000176251 -0.0277081 0.0127211 -0.0531485 0.199366 -0.0795086 -0.157405 -0.266853 -0.436875 0.0496356 0.215988 0.0611533 0.100651 0.0945671 -0.176075 0.106037 0.175648 -0.0987554 -0.10114 0.198405 -0.397552 0.287047 0.491486 0.0413186 0.200669 -0.0296206 -0.0658265 0.0363099 0.298004 0.152985 0.300245 0.135121 0.10683 0.418316 0.215285 0.0206676 0.0134603 -0.0787541 -0.143624 0.0364918 0.222001 0.0918518 0.344201 0.45004 0.232612 0.0803918 -0.0318632 -0.244918 0.233774 0.0106921 -0.011004 -0.0344488 -0.000802925 0.200677 -0.0934342 -0.093923 -0.299031 -0.0625873 -0.106691 0.00401606 0.260324 -0.0648159 -0.162385 0.0209809 0.0782654 -0.140843 0.0354301 -0.0554112 0.124737 -0.0948346 0.0973101 -0.200318 0.0310321 0.0779763 -0.137845 
0.0384368 0.157498 0.117715 0.188944 -0.195224 -0.158779 -0.0299483 0.0252824 0.290317 0.305263 0.270837 0.108881 0.148171 0.348753 0.107224 -0.00449314 0.20741 -0.0304797 -0.0381593 0.315169 0.481552 0.297739 0.103163 -0.00265395 0.0219898 0.238169 -0.102028 -0.229136 -0.0349297 0.188581 0.227617 0.119535 0.250941 0.25077 -0.011977 0.0222421 0.133329 0.0189115 -0.0158952 -0.270592 -0.297727 0.075396 0.0332174 -0.451912 0.094549 0.056557 -0.120625 -0.0325889 0.0537333 -0.02977 0.211475 0.0805739 -0.136966 0.0717532 -0.0274005 -0.0336723 0.278679 -0.0571514 0.0446083 -0.0416738 0.0659824 -0.00873611 0.276563 0.169142 0.0384898 -0.142153 0.103234 -0.0840663 0.00652744 -0.126563 -0.014297 -0.0118908 0.0154577 -0.0573891 0.205654 0.0441725 -0.0112661 -0.295108 -0.16973 -0.2155 -0.397904 -0.378863 -0.0512144 0.00597186 -0.0139897 -0.127188 0.0758055 -0.05858 -0.304966 -0.345779 -0.249549 -0.0982784 -0.0989342 -0.0606037 -0.124834 0.0144698 -0.077634 -0.246434 -0.0914529 -0.0202166 -0.0191485 -0.372738 -0.106358 -0.288627 -0.227433 0.0879741 -0.00605247 0.0724627 -0.113332 -0.128416 -0.409968 -0.229809 -0.0814811 0.0933243 -0.0634556 0.108446 -0.145223 0.132981 -0.0598819 0.0429141 
0.0852245 -0.207599 0.061924 -0.0250657 0.0826735 0.150148 0.226399 0.12901 0.0970554 0.0362863 -0.0337973 -0.0188822 -0.139104 -0.0078851 0.0817826 -0.0628582 -0.0449947 -0.101534 0.179234 0.180006 0.18443 0.0697783 -0.0699294 -0.12825 -0.0351442 -0.0656908 -0.0566889 0.0933179 0.106355 0.0766863 0.212673 0.181516 0.0336242 0.231716 -0.125986 0.0341565 -0.073734 -0.173124 -0.104209 -0.264394 -0.256986 0.206833 0.515208 -0.0356807 0.0913527 -0.0662553 -0.0604383 -0.0327895 0.0123409 -0.159472 -0.218023 -0.359635 -0.243538 0.0576359 0.213209 0.133962 0.0116877 -0.0651233 -0.0932148 0.0970966 -0.0111522 -0.176666 -0.237118 -0.248211 -0.36786 -0.102784 0.0555559 -0.251596 0.115766 -0.191411 0.00792518 0.0302292 -0.0935333 -0.291457 -0.0275986 0.131522 -0.0113681 -0.0996628 -0.214512 0.0268642 -0.0261785 -0.14239 0.112396 0.0010687 0.0230772 -0.0860953 -0.0664881 -0.196182 0.125882 0.265234 -0.0625551 -0.0839049 -0.15453 -0.0255481 0.0103332 0.129136 0.175132 0.207561 0.275251 -0.0198941 -0.0447774 0.00490797 -0.186407 -0.603072 -0.0892468 0.027242 0.00388665 0.080973 0.176277 0.241486 0.156025 0.161986 -0.08133 0.0623009 -0.0877248 -0.492099 -0.47374 -0.0329288 0.0576899 0.0179265 
-0.0622085 -0.191313 -0.334656 -0.213775 -0.0132944 -0.0367589 -0.0111544 0.148145 0.110092 -0.0199706 -0.0956854 0.00201888 -0.087494 -0.275404 -0.379016 -0.0260307 -0.128232 -0.145029 -0.184734 0.199329 0.0876705 0.00393339 -0.0452818 -0.135208 -0.0120368 0.024606 -0.00974192 -0.14917 0.0627399 0.0296741 0.189739 -0.043889 -0.101585 -0.0118511 -0.0200565 -0.126074 -0.0580631 0.0762196 0.177647 -0.178577 -0.164015 -0.0328193 0.251235 -0.0476202 -0.358221 -0.0666953 -0.14252 0.0233573 -0.0299797 0.150581 0.0383681 0.142084 -0.180349 -0.257885 -0.120984 -0.315934 -0.260518 -0.0219835 -0.0422123 0.0687972 -0.0383726 0.0528917 0.00736839 -0.03218 0.0218947 -0.418593 0.119021 0.488566 -0.0707839 0.0155631 -0.0131939 0.0210475 -0.0239011 0.120331 -0.0557429 0.133532 -0.155405 -0.0347401 0.589784 0.508543 0.12357 -0.0446469 -0.0342967 0.00418344 0.0377402 0.112202 0.0977842 0.202978 0.371311 0.588791 0.65879 0.540987 -0.0733795 -0.0798801 -0.110554 0.0149217 -0.144341 0.0281121 0.180058 0.0540636 -0.309287 -0.189218 0.0928291 -0.116392 0.11783 0.111189 0.0511791 -0.0301999 -0.0857122 -0.118165 0.00454481 -0.319996 -0.500031 -0.395611 -0.129206 0.0317242 0.336661 0.34978 -0.0743361 -0.0603916 
-0.146827 -0.0296293 -0.0752238 -0.00193756 0.0189625 0.292618 0.118984 0.245487 0.395492 0.0649112 0.0567636 0.0574155 0.0363334 -0.182505 -0.0208174 -0.0627843 0.242761 0.073907 0.237318 0.193106 0.211385 0.259433 -0.0250559 0.0484967 0.032161 -0.117618 -0.0209049 -0.0207231 0.0390149 0.0974655 0.32891 0.225605 0.242351 0.108426 0.072528 0.134004 0.115914 -0.104086 -0.128308 -0.159252 -0.365246 0.0783259 0.263632 0.0205239 0.266856 0.219844 0.0610913 0.184343 -0.07587 -0.0702214 0.223566 -0.0139073 -0.299259 -0.255806 -0.214066 0.110588 0.297199 0.0185068 -0.171523 0.0420994 -0.130311 0.0090937 -0.0650438 -0.0895531 -0.256986 0.078691 -0.353715 -0.384735 -0.290328 -0.0958048 -0.0150564 0.0896754 0.136215 0.162886 0.0286268 -0.0622025 0.0150651 0.10164 -0.0975984 -0.548257 -0.657664 -0.384701 -0.0493949 0.0422104 0.102913 -0.012344 -0.0726492 0.0612463 0.300089 0.267662 0.0312737 -0.285586 -0.438446 -0.454812 -0.0182933 0.0902091 -0.151092 -0.338464 -0.279028 0.0332235 -0.0214109 0.122286 -0.0886616 -0.0580427 -0.0926327 -0.174569 0.00885017 0.137859 -0.00433258 -0.226222 -0.350328 -0.033332 -0.0809917 -0.138686 -0.109092 0.0338775 0.184153 0.0287454 0.0956957 0.0411645 
-0.0830169 -0.0138871 -0.0446755 -0.18487 -0.0142733 0.148565 0.000297047 -0.0669463 -0.0248812 0.13086 -0.0803077 0.130249 0.170978 0.086958 -0.355699 -0.224487 -0.0882166 0.10856 -0.00485241 -0.0916936 0.117856 0.0941892 0.09039 0.128301 0.166394 0.23034 -0.0233223 -0.268431 -0.122525 0.100845 0.181899 -0.20003 -0.0833608 -0.00149213 0.0813567 0.0907372 0.0911507 -0.00369045 0.00575878 -0.349013 -0.488634 0.101089 0.109094 -0.0488244 -0.302691 -0.0624713 -0.0806511 0.0107911 -0.0616882 0.168038 0.0463778 0.135319 -0.00518585 0.195185 0.185162 -0.119857 -0.028678 -0.200769 -0.0561981 0.0156454 0.0329168 0.131672 -0.00774147 0.13052 0.0580501 -0.0104584 0.0486223 -0.119852 -0.561682 -0.15805 0.0119077 -0.0394347 0.059088 0.0221691 0.0134482 0.173828 0.0980661 -0.111981 -0.0170407 -0.109698 -0.329212 -0.0829227 -0.0754607 0.0158956 -0.0446729 0.0947984 -0.18816 0.0308166 0.187477 0.0820907 0.0629534 -0.253856 -0.0262358 0.00151461 -0.0374949 -0.00131237 0.00750855 -0.120508 -0.0881855 -0.0996937 0.151335 0.101277 0.247287 0.114239 0.0327776 0.0115448 0.021699 0.0721536 -0.112937 -0.10216 -0.150981 0.0564664 -0.00262135 0.172552 0.274721 0.166859 0.150302 0.00483046 -0.0593654 0.0187061 
0.0330711 0.00596813 0.00734607 0.0430809 -0.154482 -0.0404146 -0.101933 0.112985 0.128659 0.122976 0.177192 -0.0249099 0.0260872 -0.0113113 0.274281 0.195805 -0.150095 -0.208578 -0.0956015 0.000507252 0.0307322 0.149199 -0.0499018 -0.00774901 0.0351118 -0.0152641 -0.0568938 0.190711 -0.159447 -0.0135306 -0.166495 -0.19627 0.123016 -0.0257312 -0.0645602 0.045366 -0.0296305 -0.000228281 -0.0440993 0.139364 0.127867 0.0592584 0.0294495 -0.410645 0.037065 0.0914523 0.131506 0.100664 0.0129117 -0.0414269 -0.0809542 -0.199615 -0.0419969 0.354172 -0.0870915 -0.0818134 0.154608 0.127293 0.0794008 -0.0257556 0.00343063 -0.126754 -0.191727 -0.59107 -0.127342 0.346394 -0.234142 -0.279 -0.0890724 0.00876485 -0.0229827 0.0718031 0.111386 -0.233922 -0.185124 -0.531823 -0.2749 -0.0963715 -0.147934 -0.0683278 -0.389526 0.0419664 -0.0482018 0.0436206 -0.0161737 -0.0786128 -0.305032 -0.320338 -0.0990404 -0.0067566 0.000355038 -0.0634292 -0.0314877 -0.0979946 0.0636116 0.0837447 -0.0470809 -0.152363 0.0509723 0.109138 -0.0397289 0.481509 0.264895 -0.122778 -0.266963 -0.181958 -0.0530969 0.0202276 0.0577524 -0.0497112 -0.211443 -0.00493507 -0.129506 0.0992925 0.321277 -0.0143161 -0.275046 0.0914534 -0.0741871 0.0430974 
-0.128387 -0.0241115 -0.0533327 -0.229972 -0.091186 0.0863292 0.180974 0.218573 0.339414 -0.00905925 0.0899909 0.0430359 -0.0999571 -0.0931025 -0.0411834 -0.0346641 -0.0750347 0.0397379 0.401186 0.268332 0.305693 0.0034112 -0.0220494 -0.0286402 -0.11293 0.0323001 0.173264 0.14933 0.125612 -0.0604779 0.188549 0.256522 0.265636 -0.00761531 0.0347654 -0.0325964 0.00888544 -0.110981 0.106399 0.310705 -0.146237 -0.311313 -0.132258 0.143128 -0.16258 -0.159029 -0.0945271 0.0264336 0.0867592 0.0672435 0.0133309 0.0716551 -0.423854 -0.328171 0.153271 0.0388988 -0.184036 -0.0822502 0.0321989 0.085845 0.0201273 0.203562 -0.127807 -0.00436324 -0.232528 -0.052189 0.288607 -0.199555 -0.163535 -0.0492783 0.0216337 0.0242363 0.0931769 0.123538 -0.150464 -0.239224 -0.100252 -0.156829 0.210745 -0.210684 -0.508446 -0.15802 0.0235724 0.081756 0.0738597 0.018115 -0.0844055 -0.093263 0.156048 -0.064642 0.0134034 -0.192294 -0.147493 0.0237428 0.0508124 0.0958761 -0.0857823 -0.0498581 -0.189948 0.125599 0.140475 -0.0455586 -0.152753 -0.132641 0.155125 0.0507184 0.114717 0.0964921 -0.0381757 -0.108919 -0.387891 -0.243923 0.158298 0.124135 -0.375723 -0.181566 -0.236348 -0.0159943 0.155611 0.0642133 
0.0117822 0.0282657 0.013209 -0.16106 -0.0352618 -0.000961843 0.0847341 -0.0788768 -0.14728 0.0522334 0.0454259 0.153831 0.188672 0.0759055 -0.0715575 -0.313562 -0.0995055 -0.228918 0.0835256 0.0675819 0.0252957 0.126262 -0.00217106 0.10987 0.0449954 0.030311 -0.0412493 0.0374454 -0.130375 0.168707 0.245065 0.40369 0.308669 0.100764 -0.00766836 0.0544204 0.12138 0.160394 -0.107366 -0.116751 -0.226609 0.35573 0.377119 0.0363159 0.0217235 0.0291182 0.0232654 0.0925285 -0.0144285 -0.146059 0.17586 0.265074 0.266847 0.321766 -0.00769746 0.047714 -0.0195005 -0.285177 0.0360687 0.0245856 0.0398286 -0.0170062 0.259905 0.270055 -0.0668776 0.147635 -0.273285 -0.467669 -0.133509 -0.161628 -0.0781791 -0.0264473 0.095026 0.0926729 0.147986 -0.104426 -0.371217 0.0400209 -0.620121 -0.0589721 -0.0606287 -0.269943 0.000276398 -0.0474585 0.102798 0.00189252 0.0844187 -0.230031 -0.2599 -0.0485216 -0.269165 -0.187337 0.126504 0.0457313 0.0433925 -0.0614271 0.0515802 -0.273026 -0.143596 0.0590548 0.0475654 -0.0705482 0.0681583 0.159773 -0.0379796 -0.173364 0.0414629 0.00924848 -0.0630175 -0.161607 -0.321799 0.120725 -0.00690672 -0.266152 -0.0896175 -0.119733 -0.380263 -0.120028 -0.0694447 0.0510641 
-0.0455115 0.0548142 -0.117953 0.126601 0.141667 0.109555 0.272344 0.1788 0.0123121 -0.134807 -0.095784 -0.058827 0.00169808 -0.00073856 0.192468 -0.0301651 -0.0955957 0.105413 0.0654915 0.292846 0.090387 -0.0562257 -0.100714 -0.0279785 -0.123734 -0.0371146 -0.00601337 -0.158692 0.0410967 0.0496402 0.0578486 0.34253 -0.100545 -0.0683053 -0.0202263 0.0112858 -0.0706284 -0.116738 -0.0607948 0.118933 -0.0194612 -0.055875 0.126143 -0.0267219 -0.0283702 -0.00607194 -0.0932428 -0.0545618 -0.0116041 -0.0827078 -0.135132 -0.0801734 -0.298628 0.170286 -0.124818 -0.0493124 -0.105538 0.0618666 0.0759809 0.014709 -0.114194 -0.168262 -0.177257 -0.314589 -0.312929 0.100944 0.199317 -0.223462 0.180959 0.149694 0.0221298 -0.0297768 -0.117383 -0.151103 -0.0445592 -0.32495 -0.269798 -0.125374 0.163613 0.325591 0.513098 0.174532 0.00720869 0.0344983 -0.119657 -0.021704 -0.0381933 -0.0985457 -0.296858 0.0044408 0.299409 0.524492 0.169281 0.245674 -0.0576258 0.0467644 0.0207051 0.00588527 0.0675689 0.02989 0.114856 0.0305752 0.197232 0.130744 0.00295611 -0.0911478 -0.0542051 -0.00894336 0.054002 -0.12616 -0.00399562 0.0419513 0.0193824 0.212187 0.197927 0.192153 -0.308144 -0.201363 0.0717678 0.057119 
-0.0147081 -0.0935618 -0.0850263 -0.0280477 0.216075 0.190204 0.132735 -0.109782 -0.133575 -0.220068 -0.066576 -0.0150028 0.0333163 -0.112384 -0.177591 0.0592736 0.169998 0.122978 -0.0798054 -0.0518629 -0.440466 -0.272374 -0.0728006 -0.00479774 -0.00197052 0.0123367 -0.0328608 0.147934 0.254352 0.282652 -0.0178742 0.278953 0.0847873 -0.0543785 -0.0223774 -0.0767949 0.0248066 -9.21391e-06 0.084237 0.122803 0.22583 -0.125637 -0.051486 0.128302 -0.100343 0.0109585 0.0610256 0.0915472 -0.0700727 0.0884015 -0.140629 -0.0201802 -0.134185 -0.16092 -0.403891 -0.174709 -0.0729512 -0.00815106 0.0747172 0.0806636 0.0847754 0.0623162 -0.154485 0.0809614 -0.0646643 -0.317991 -0.228846 -0.0925823 -0.0309998 0.0326352 0.103613 0.0389362 -0.066256 0.0659421 -0.199861 0.00592025 0.0906451 0.0946126 -0.171682 0.0313085 0.156709 0.120684 -0.0144322 0.0788171 -0.0577042 0.132672 0.0505478 -0.040074 -0.0360925 -0.150699 -0.192788 0.139492 0.210591 0.0855698 0.00127431 0.0855579 0.127488 0.161648 -0.0261092 -0.0090811 -0.113737 0.0148719 -0.0421521 0.0886581 0.146271 -0.0311076 0.0229178 -0.00149604 0.00183295 0.0171437 0.333475 0.0267098 -0.196107 -0.160929 -0.102674 0.00552927 0.0242838 -0.0536276 0.0548796 0.0780076 
0.0440795 0.111627 0.193101 0.213206 0.270232 -0.0158229 -0.0376589 0.12976 0.0559151 -0.0059182 -0.0445098 0.139952 0.0265584 -0.0344401 -0.021732 0.268757 0.28736 0.161119 0.198865 -0.00463015 -0.204675 -0.32902 -0.060317 0.0151529 0.129114 -0.12253 0.0496878 0.123597 -0.155104 -0.0717771 -0.126934 -0.11616 -0.0551779 -0.149281 -0.0042525 0.0272568 0.080742 0.136246 0.125799 -0.0841577 -0.257941 -0.353399 -0.395005 -0.0553985 0.132057 0.130399 0.0481709 0.105745 0.0768287 -0.013415 0.162028 0.178483 0.0196899 -0.303924 -0.401612 -0.158861 0.00348778 0.135312 -0.0382409 -0.0699434 -0.0423306 -0.000861768 0.202443 0.225726 0.2871 -0.126936 -0.266048 0.113335 -0.023464 -0.0134121 0.0264197 -0.00102229 0.0371028 0.0989197 0.064305 0.124596 0.190177 -0.299234 -0.100973 -0.0324244 -0.157748 -0.00364985 -0.0340386 0.0504307 -0.111186 -0.052229 -0.0647822 0.192694 0.115601 -0.284216 -0.159592 -0.237651 -0.086024 -0.103921 -0.100763 -0.0577071 -0.166132 -0.320062 -0.173865 0.302088 0.237295 0.119232 -0.0377722 -0.0327925 -0.210256 -0.292682 -0.0752254 -0.0482744 -0.191814 -0.414813 -0.211201 0.0493962 0.138019 -0.0402244 -0.0142105 0.257307 0.0297476 -0.143082 -0.101412 -0.00374978 
0.063571 0.0479074 0.104211 0.103185 0.133866 -0.191053 -0.222886 -0.0668288 -0.197568 -0.201646 -0.0658564 0.010256 -0.160962 0.0495121 -0.0391104 0.0406275 -0.180057 -0.208423 -0.252191 -0.0920212 -0.0911985 0.0120821 0.0245477 -0.0994831 -0.0430048 -0.0267203 0.0986641 -0.178893 -0.115567 -0.317702 -0.355572 0.325171 -0.0298073 0.0808263 0.184802 -0.00352471 -0.124057 -0.187337 -0.234733 -0.060361 -0.125113 0.0207877 0.0542325 0.86386 0.325411 0.303174 0.119855 0.0848851 -0.120386 -0.226356 -0.0117185 -0.102372 -0.133421 -0.413418 -0.0561951 0.188532 0.268432 0.0815889 0.0987641 0.0374006 -0.0205697 -0.305874 -0.101 0.027366 -0.00645794 -0.138103 -0.292693 -0.103999 0.00282981 0.150013 0.236344 -0.0518843 0.0864561 -0.111425 -0.0672428 0.241554 0.00420534 0.13833 -0.398953 0.00757988 0.386605 0.240412 0.176436 0.0411836 0.0371406 -0.122382 -0.241763 -0.0591192 -0.164559 0.265592 0.119319 -0.177134 -0.0874143 0.155123 0.059875 -0.0337263 0.0906542 -0.244908 -0.0815317 -0.333469 0.171408 0.315663 0.0994764 -0.115566 -0.185145 -0.0996779 -0.137453 0.0941572 0.0218608 0.0237516 0.0732823 0.147164 0.162847 0.198353 0.400939 0.0582635 -0.289152 -0.169661 0.121261 0.0477524 
-0.0521253 -0.135062 0.00228405 0.324009 0.224695 0.247086 0.0964722 -0.0101404 -0.0344278 0.0213218 0.0289874 0.100896 -0.0272299 -0.105614 0.00117627 0.250025 0.0735212 -0.0684174 -0.117365 0.0972276 0.2136 -0.0511583 0.0395035 0.0700189 0.0865158 -0.000406351 -0.234408 0.153784 0.175217 -0.0345787 -0.199053 -0.115811 -0.196893 0.136245 -0.0802612 0.0568371 0.0128541 0.0067097 -0.0468614 -0.285771 0.090564 -0.28084 -0.347528 -0.187958 -0.194027 -0.107447 -0.0879113 0.0468545 0.00157656 0.0500159 -0.0569752 -0.426379 0.0262364 -0.0282341 0.143636 -0.14773 -0.450714 -0.310189 0.0763584 -0.0237853 -0.0334955 0.0718946 0.000390372 -0.0515717 -0.0841618 -0.268372 0.044279 0.0729318 -0.234811 -0.0800537 -0.0265997 -0.04298 0.0634002 0.0827591 -0.0928067 0.471718 0.531198 -0.0134731 -0.00510678 -0.202401 -0.0227439 -0.0162468 -0.118554 0.0689009 -0.0643467 0.0701145 0.127336 0.100659 0.174295 0.0999154 -0.411947 -0.378653 -0.092823 -0.0785616 0.00190596 0.0152214 -0.125941 0.0590608 -0.0245416 -0.181849 0.175595 0.263458 0.214892 -0.228041 -0.0978963 -0.0820764 -0.13048 0.033711 -0.0585611 -0.175617 0.00347754 -0.0430188 -0.186649 0.108552 0.711431 0.667891 0.25893 -0.0299362 -0.0447327 0.0812493 
-0.0292918 0.0939446 0.318312 0.101765 0.0393921 0.00034208 0.0805376 0.347264 0.23742 0.18718 0.0632367 0.00328362 -0.201201 0.0216913 0.0882723 0.182371 0.22377 0.020389 0.297766 0.345279 0.527057 0.0267216 -0.0390603 -0.148246 -0.134222 -0.024187 0.0860718 0.341971 0.444464 0.313195 0.0955489 0.113711 0.415653 0.148189 -0.167259 -0.0879707 -0.016299 -0.0783772 -0.0858928 0.300819 0.367937 -0.284013 -0.284824 -0.27923 0.058272 0.128222 -0.201896 0.0721555 0.0624662 0.00664445 -0.0146293 0.313037 0.317494 0.441182 0.210796 0.0212415 -0.165059 0.065693 -0.142317 -0.0483129 -0.0143288 0.049492 0.0799834 0.223821 0.24758 0.362074 0.301606 -0.0723582 -0.0362301 -0.0530148 -0.125463 -0.0333381 -0.0181402 -0.102257 -0.00276731 -0.376478 -0.241807 0.0461025 0.0389456 -0.282793 -0.340395 0.0557586 0.0370277 0.0643822 -0.0686518 -0.0407276 0.0174424 -0.262667 -0.492419 -0.353808 -0.106225 -0.0907064 0.0256656 -0.051053 0.106459 0.0395506 -0.0838793 -0.047545 -0.283876 -0.271212 -0.357951 -0.444327 -0.027992 0.0388693 -0.0198638 0.128946 0.172513 0.00113246 -0.0228361 -0.108162 -0.0209965 -0.0163767 -0.0612817 -0.122641 -0.335999 -0.213772 -0.0189312 -0.0135544 -0.00138719 0.113793 
0.070739 0.168916 0.224715 0.0368621 -0.0810695 -0.25534 -0.18835 0.111928 -0.071195 0.0161009 0.0367922 -0.104462 -0.116649 0.00609926 0.219278 0.175934 -0.144824 -0.229897 -0.0717308 -0.0693661 -0.0365374 0.103932 -0.055739 -0.12173 -0.150541 -0.115379 0.211551 0.243499 0.0601724 -0.127194 -0.282414 0.202717 0.139953 0.153534 -0.00500599 0.00434288 -0.122928 -0.126229 0.0330749 0.201465 0.255794 -0.185573 -0.228878 0.246304 0.349283 -0.0344334 0.0567126 0.040787 -0.0161482 -0.288276 -0.0181239 0.352736 0.185046 -0.0304025 0.0145239 0.25198 0.145011 -0.0757717 0.0481873 0.106727 -0.0765967 -0.117421 0.111178 0.198567 0.162042 0.0588948 0.242401 0.247179 0.290941 0.0460862 0.0827075 -0.0164926 -0.00049264 -0.243525 -0.105687 -0.0885757 -0.0246265 -0.0907307 0.061977 0.342696 0.196362 0.0598227 0.0184243 0.0260249 0.0360823 -0.0808661 -0.0845241 -0.183465 -0.157289 -0.00673441 0.141159 0.0605124 -0.00175692 0.225897 -0.0160669 0.0871065 0.0941594 -0.0326128 0.0845952 -0.0648329 0.0811187 -0.108531 -0.120539 -0.0571158 -0.129304 -0.0657387 -0.0732118 0.0032055 -0.105636 0.04457 0.210209 0.00531586 0.0913351 -0.274569 -0.290017 -0.394459 -0.36293 -0.213108 -0.00041494 -0.0172455 
0.100647 0.0219007 0.275865 0.0464483 -0.0526871 -0.135614 -0.237715 0.15342 0.136155 0.22035 0.0695186 -0.0648019 -0.190733 -0.123749 0.102446 0.0465827 -0.270629 -0.337367 -0.0415619 0.000628123 -0.00819941 0.111092 0.0107232 -0.0502275 -0.109586 -0.269583 -0.300608 -0.0672249 -0.419731 -0.335601 -0.0167775 0.301096 -0.110923 0.115896 -0.0128198 0.0328237 0.0128145 -0.311202 -0.248936 -0.148083 -0.459806 -0.210827 0.194409 0.33229 0.234362 0.100581 0.0133478 -0.0109824 -0.0985229 -0.32369 -0.408621 -0.0947515 0.362992 0.278687 0.56046 0.513633 0.220387 -0.185842 -0.123607 0.149578 0.0678463 -0.243835 -0.241122 0.211325 0.490441 0.327093 0.645411 0.47522 0.00492663 -0.300277 -0.0312133 0.161971 0.111106 -0.0937317 -0.0189206 0.222122 0.162906 0.379784 0.0716906 -0.174361 -0.253636 -0.207189 0.00166211 0.144903 0.0467762 -0.127607 0.0427227 0.191721 -0.0152856 -0.111267 -0.174865 -0.394522 -0.124487 0.0865859 0.0159967 0.0890451 0.0918266 0.138374 0.082837 0.0633722 -0.0896999 -0.229979 -0.246275 -0.134682 0.0462015 0.0417094 0.110999 0.0911227 0.0580992 0.091283 -0.02016 0.07004 0.183218 -0.141297 -0.579288 -0.0911151 -0.120378 0.0197031 -0.0127276 0.0206538 
0.118861 0.161588 0.135112 0.0533261 -0.188812 -0.301187 0.0154716 0.0431071 0.0697941 0.280303 0.184949 0.0343235 -0.0697386 -0.0261138 0.123827 -0.0473725 0.125842 -0.296843 -0.272099 -0.040544 0.00996157 -0.0192359 -0.0897069 -0.0838247 -0.085259 -0.0148159 -0.0581226 0.573989 0.209057 0.0583947 -0.105894 0.0734209 0.0949483 0.0106541 -0.164928 0.115691 0.0290679 -0.00439338 -0.030721 0.126336 0.125377 0.085789 0.136882 -0.629909 -0.471621 -0.204327 -0.187083 0.157114 -0.00534664 -0.0609066 -0.0947849 0.165469 0.399523 0.703844 0.29215 -0.125622 -0.523721 -0.306411 -0.0940962 0.0728517 0.0428531 -0.0913341 -0.11664 -0.117721 -0.000861959 0.488974 0.0130863 -0.0772345 0.195195 -0.150126 -0.0792267 0.0212077 0.122641 0.0268039 -0.218543 -0.4406 -0.175401 0.102088 -0.0103054 0.2316 0.120292 -0.166088 0.123092 0.0106689 0.120706 -0.00449834 -0.152089 -0.393413 -0.103166 -0.142802 -0.0654574 0.0461412 0.218885 0.0117275 0.109654 0.140685 0.111682 -0.0690029 -0.134931 -0.165973 -0.224168 -0.306118 -0.115608 -0.0286142 0.0180505 0.13544 0.0796984 0.13394 0.0752 -0.0172672 0.172459 -0.0533664 -0.192559 -0.34724 -0.259757 -0.263211 -0.0150372 0.0961024 0.072261 0.110055 
-0.0607519 -0.167064 -0.225306 -0.0700329 0.22022 0.277109 0.397299 0.187886 -0.216083 -0.363998 -0.264515 0.000637925 0.0295979 -0.213538 -0.371508 -0.188613 -0.0638791 0.401287 0.274567 0.276758 -0.272249 -0.407292 -0.112265 0.0405494 0.018974 0.0308875 -0.201226 -0.28371 0.114603 0.11808 0.354441 0.257135 -0.276426 -0.15225 0.0151726 0.0463233 -0.00459879 0.0719733 -0.130525 -0.269706 -0.122338 -0.196592 0.127092 0.464439 0.193279 0.0607295 -0.00981999 -0.113067 -0.0724629 0.156003 -0.232643 -0.195331 -0.16553 -0.236005 0.13936 0.14156 0.0665759 0.0554532 0.0537721 -0.0912608 0.05958 0.108018 0.00579429 0.203126 -0.0901294 -0.0202342 -0.0455005 0.169268 0.210259 0.23916 0.0509043 0.0412479 -0.0158694 0.0997373 0.208418 0.450519 0.0130709 -0.0179702 -0.0363211 -0.0673145 0.265081 0.0794567 0.0135837 -0.130328 -0.0962548 -0.0379519 0.173224 0.262598 0.16509 0.11862 -0.00126371 0.0999822 -0.0600356 0.217979 0.00135583 -0.11867 -0.0359206 0.0477972 0.440083 0.14111 0.192456 0.274839 0.395368 0.323528 -0.0217259 -0.0128613 -0.0623118 -0.0324033 -0.00159235 0.0346365 0.194147 0.412133 -0.0578705 0.112487 0.540352 0.496622 0.0906547 -0.104776 0.0212178 -0.112619 
-0.0432245 0.0420144 0.262263 0.295635 -0.00563467 0.0628741 -0.128441 0.100122 0.0280476 0.140725 0.186805 0.0448923 0.0331506 0.027942 0.318711 0.316077 0.225322 -0.0113505 -0.10404 0.0438863 0.177996 0.106804 0.0706884 -0.0204219 0.00042815 0.088781 -0.172271 0.171851 -0.175852 -0.1101 0.017081 0.276374 0.0469659 0.00397333 0.00231344 0.0577838 0.0557581 -0.150592 -0.166475 -0.230129 -0.160264 0.116741 -0.277068 -0.0460129 0.0923233 -0.130975 -0.0585303 0.0312716 0.057354 -0.0806478 -0.19643 0.0257251 0.541683 0.494561 0.403859 0.336507 -0.0414297 -0.161939 -0.0709217 -0.0654025 -0.0462753 -0.124043 -0.108415 0.107647 0.495761 0.244186 0.472172 0.202208 -0.144288 -0.236113 -0.0457379 -0.0086797 -0.00802719 -0.0049694 -0.0978475 0.264262 0.386047 0.115011 -0.208084 -0.0151186 -0.13804 -0.119428 -0.057579 0.0450912 0.0824183 0.0232188 -0.113247 -0.0110784 0.0356939 -0.361705 -0.369301 -0.358755 0.021619 0.0110069 -0.0329262 0.06216 -0.00422958 0.101192 -0.0833159 -0.0183676 -0.0340243 -0.249313 -0.139525 -0.301422 -0.143521 0.0135045 -0.0441332 0.0283641 -0.0763916 -0.0952317 0.0101123 0.0579966 -0.115749 -0.170711 -0.0175884 0.186373 -0.135729 -0.0161138 -0.138793 0.084177 
0.00479469 -0.136975 -0.224531 -0.2663 -0.0272654 -0.0157673 0.000923247 -0.151663 -0.307419 -0.29299 -0.194529 0.0629053 0.00817927 -0.0863569 -0.344635 -0.351021 0.207602 -0.320425 -0.0327652 -0.193397 -0.299622 -0.217838 -0.049273 0.0114298 -0.0626411 -0.0713267 -0.0938228 -0.158578 0.10717 -0.224263 0.0482794 0.281502 -0.0222235 0.0555484 0.0507122 -0.023403 0.0448792 0.121531 -0.0998198 -0.121255 -0.189985 0.0934411 0.269091 0.215923 0.152976 0.0827274 -0.0285484 0.0712737 0.110651 0.120751 0.0249607 -0.0929557 -0.330958 -0.272389 -0.374925 -0.246431 0.0883439 -0.0169847 -0.00941556 0.0628633 -0.015561 -0.00565469 0.0423001 -0.0343013 -0.262371 -0.125621 -0.742313 -0.645994 -0.14646 0.0621235 0.1451 0.0985817 0.0613188 -0.0270018 0.101675 -0.00458019 0.0251118 0.175302 -0.296469 -0.107044 0.0259277 0.155828 0.0215834 0.103001 0.0901044 0.0253015 -0.00244164 -0.0228659 0.157238 0.116628 -0.267143 0.070281 0.0947922 0.0155464 0.0533605 -0.00234883 0.1071 0.23165 -0.00452375 0.175093 0.150276 0.274157 0.192769 0.312779 0.164305 -0.110711 0.0742068 0.0707529 0.0706498 0.267334 0.118354 0.0130831 0.00235819 -0.0168762 0.387556 0.00716848 0.0290042 -0.0644325 0.0413005 0.0101774 
-0.0767807 0.207016 -0.0980715 -0.0727616 0.101264 0.149277 0.0583893 0.224469 0.00937493 -0.0476972 0.00316748 0.0195757 -0.177636 -0.100425 -0.00567131 -0.00228961 0.0303163 -0.0148603 -0.0203108 -0.111021 -0.290313 0.00182373 -0.218055 -0.0236052 -0.16282 -0.0562123 -0.0885426 0.0455561 -0.237566 0.070699 -0.137226 -0.197827 -0.399418 -0.142192 -0.210058 -0.0896844 -0.0584451 -0.197788 -0.0725632 -0.0366375 -0.195639 -0.125527 -0.0268352 -0.316951 -0.381354 -0.141033 -0.0908251 0.0306019 -0.104882 -0.0533059 -0.230835 0.0645157 0.161677 0.00421851 0.179344 0.0154184 -0.151037 -0.0982514 0.0180182 0.114715 -0.0296861 -0.0356895 -0.139056 0.0859476 0.253138 0.115973 0.31118 0.0879573 -0.288854 -0.357211 -0.00438967 0.0122103 0.0441548 -0.101789 -0.273552 0.0469867 0.0151566 -0.170909 0.397319 0.286743 -0.357373 -0.077353 -0.0379002 -0.00112003 0.0612807 -0.118777 -0.179009 -0.204727 -0.0183392 0.468334 0.426589 0.166395 -0.0612253 -0.123834 0.0100927 0.111537 -0.0646797 -0.0332019 0.00489151 -0.0775725 -0.100646 0.46626 0.430487 0.461884 0.315113 0.102111 0.131464 0.0136478 -0.0597565 0.109577 0.123063 -0.0514322 0.0846525 0.169827 0.455626 0.161357 0.33016 0.272889 0.0602756 0.0527748 
-0.0152548 0.219632 0.115899 -0.0479314 0.0184436 -0.0279371 -0.203708 0.166551 -0.00459468 -0.0393699 -0.017023 0.0931648 0.167128 0.0255603 0.21617 0.130658 -0.106458 -0.258728 -0.230369 -0.106153 0.0190382 0.0118094 0.11622 0.0443522 0.0304185 0.117515 0.261424 0.136012 0.101267 -0.238835 0.0331525 0.459862 -0.00920355 -0.0117116 0.0694565 0.134636 0.000703884 -0.0838656 -0.00755225 0.372854 0.122447 0.0953487 0.0825571 0.244106 0.188145 0.108934 -0.0160871 0.0681988 0.0501296 -0.0416107 -0.0401387 0.117191 0.00146973 0.193856 -0.311378 -0.374451 -0.0916701 0.0541507 0.0105638 -0.00412374 -0.0523061 0.0961182 -0.0393546 -0.098265 0.128555 0.0814556 0.0679273 -0.19026 -0.312262 0.0352894 -0.0252051 0.075494 0.0928667 0.0050534 -0.253797 -0.23648 -0.188081 0.103079 0.525228 0.153563 -0.277051 -0.251818 -0.0267405 0.00720191 -0.0487234 -0.0782215 -0.190306 0.157816 -0.0204905 0.124328 0.611925 0.29476 -0.224434 0.00573623 0.042782 0.0279586 -0.0929403 -0.345383 -0.271503 0.138893 -0.161816 0.0524766 0.0287347 0.0835568 -0.117234 -0.232141 0.089764 0.0500985 -0.0534625 -0.262523 -0.0716054 -0.021704 -0.113908 -0.361597 -0.132986 -0.10034 -0.116599 -0.106306 0.0168777 0.05566 
-0.158614 -0.139477 0.0390111 0.218707 0.308387 0.343014 0.151643 0.252827 0.269415 -0.0812456 -0.0140352 -0.0872223 -0.201064 0.220224 0.0125223 0.319708 0.0305851 0.490982 0.386266 0.346583 0.153145 -0.0901699 -0.178429 -0.165044 -0.252665 0.110504 -0.0155243 -0.297722 0.105459 0.183618 0.258373 0.194351 0.277731 0.200288 0.029701 -0.0544145 -0.0735204 -0.2138 0.118281 0.091336 0.0710719 0.0497703 0.348938 0.476625 0.392142 0.402432 -0.060258 -0.166528 -0.112313 0.00791466 -0.0089143 -0.0867625 -0.726925 -0.597103 -0.254123 0.0328496 0.494243 0.427657 0.137426 -0.0688158 -0.0416524 -0.0386266 -0.154723 -0.225572 -0.111522 -0.538642 -0.116456 -0.017995 0.142431 0.284765 0.170001 -0.078542 0.00408983 -0.0720141 -0.275106 0.03298 0.175962 0.181659 0.197408 -0.210096 -0.0729312 -0.00285276 0.0141347 -0.0532855 -0.00372824 -0.0357596 -0.174887 0.0961687 0.281176 0.114268 0.404189 -0.143375 -0.159937 0.0889041 -0.0544218 9.63585e-05 0.024588 0.335605 0.0644265 -0.0816744 -0.373384 -0.321445 -0.528062 -0.516488 -0.0777172 -0.112269 0.106517 -0.0673377 -0.0429015 0.0482537 -0.0530215 0.0473751 -0.130374 0.0599491 -0.530356 -0.424748 -0.317183 -0.061127 0.0393206 -0.11917 
-0.0246813 0.157867 0.228449 0.222487 0.262007 0.108537 0.183422 0.203823 0.0451106 -0.11542 0.0107108 0.0436458 -0.103912 -0.0434006 0.0840941 -0.066924 -0.106653 -0.0607262 -0.24216 -0.216365 -0.627654 -0.398727 0.015511 -0.056162 0.0161929 -0.0516955 0.0211319 0.122184 -0.0415255 -0.0498343 -0.234 -0.181084 -0.349277 -0.291102 -0.0803891 -0.000814996 0.0397644 -0.181443 0.0688624 -0.146155 -0.0384087 -0.271787 -0.17374 -0.145846 -0.219238 -0.241872 0.0184733 0.194051 0.0934832 -0.234331 0.000188222 -0.0447322 0.0707202 -0.0463696 0.249533 0.00870993 -0.0933369 -0.0495423 -0.0285603 0.18857 0.124913 -0.208465 -0.0881093 0.109516 0.175002 0.166182 0.162432 0.287812 0.301327 0.0749517 0.0124724 0.0880697 0.00817162 -0.135096 -0.194155 -0.112461 -0.141614 -0.127982 -0.0186123 0.131671 0.0985197 0.0937384 0.173623 0.078579 0.0449944 -0.0703377 -0.354631 -0.293337 -0.228208 0.125474 -0.224797 -0.00540137 -0.124874 -0.0379695 0.148202 0.201412 0.0303333 -0.195531 0.0744758 -0.0368117 0.419064 0.376738 0.0110226 0.109116 -0.428073 -0.210182 0.0393703 0.13997 -0.10751 -0.125161 0.0441274 0.157818 0.07118 -0.0398096 0.256167 -0.0752943 -0.11961 -0.034207 0.0265413 0.0871967 
-0.0126112 -0.125913 -0.324652 -0.0461201 0.135802 -0.0106714 0.224597 -0.142723 -0.227023 -0.292898 -0.17626 -0.0783565 -0.0926715 -0.0238061 -0.142504 -0.152641 0.0684972 0.179245 0.0761916 -0.0612615 -0.298892 -0.193867 0.0638117 -0.0237282 0.0568545 0.0257924 -0.00857489 -0.253345 0.0773549 0.170512 -0.0194685 -0.073601 -0.0579594 0.105792 0.176648 -0.104572 -0.0768432 0.16034 0.0789724 -0.0990402 -0.0508202 -0.0169871 -0.0285366 0.134587 0.156925 -0.0330298 0.11936 -0.0259747 -0.091004 0.0933652 -0.0431283 -0.220344 -0.22198 0.127323 0.0520041 0.242341 0.0809608 -0.00348153 0.0966601 -0.096008 -0.00674615 -0.0276643 0.0682818 0.0651057 -0.212994 0.0148884 -0.0225543 0.534867 0.452602 0.199806 0.0378132 -0.133671 0.0497368 -0.0317573 0.176548 0.122321 -0.00770479 0.0172242 0.20396 0.447457 0.695229 0.239234 -0.061261 -0.0917083 0.0380229 0.0362788 0.135426 -0.0365603 0.0152584 0.055812 0.034065 0.25349 0.0219752 0.114836 -0.112699 -0.058607 -0.0143779 0.0103486 0.0571822 -0.346565 -0.106909 -0.284516 -0.0947392 -0.165836 -0.0999265 0.211345 -0.122885 -0.149396 -0.0194572 0.0688278 0.094904 -0.0836768 -0.235828 -0.230588 -0.161197 0.0312077 0.161093 -0.0125907 0.0618048 -0.160953 
-0.033714 -0.281761 -0.144137 -0.100356 0.180792 0.121418 0.117079 -0.264454 -0.205642 -0.221558 -0.101908 0.0369796 0.122055 0.158743 -0.398144 -0.196063 0.263209 -0.0737063 0.0017978 0.0743631 -0.236777 -0.131317 -0.0139308 0.0833605 0.172954 0.203151 -0.22201 -0.0666148 -0.0315592 0.0869817 0.292571 0.117593 0.0792721 0.0556372 0.122375 -0.0693294 0.0327544 0.00294473 0.120859 -0.289339 -0.280936 -0.202384 0.189893 -0.0126349 0.178173 0.258655 0.0806011 0.0606249 -0.00873812 -0.05022 0.111427 -0.108355 0.0130967 -0.120933 0.169455 -0.0108952 0.359349 -0.00683026 0.117376 0.0650575 0.0310593 -0.0181918 -0.00436472 -0.0407747 -0.0369751 0.0734328 -0.115063 0.0943564 0.0467639 0.141556 0.144988 0.0623031 -0.00101337 0.113093 0.0773533 0.202538 0.139112 0.0289865 -0.197503 -0.0352734 -0.0804995 -0.0436799 0.0517103 0.0540066 0.077262 0.0348006 0.0495498 0.00300156 0.326084 0.340354 -0.501881 -0.209301 -0.168182 -0.0747445 -0.0522231 0.0441346 0.0017127 0.141229 0.138084 -0.241458 -0.0562214 -0.155971 -0.42981 -0.202448 -0.186116 0.0734456 0.0360587 -0.10838 -0.0440269 -0.00503534 -0.0288278 -0.210241 -0.652495 -0.52579 -0.0558488 -0.0634253 -0.188231 0.00398934 -0.0727917 -0.0979706 
0.108324 -0.0642942 -0.109142 -0.337594 -0.0633279 -0.155004 -0.306299 -0.250284 0.122492 0.0858777 0.037297 0.116054 0.143718 -0.109991 -0.39351 -0.0735392 -0.313068 -0.23101 -0.327733 -0.312814 -0.205258 0.0761815 0.141685 0.238663 0.166103 0.18753 0.0976165 0.254931 0.0353862 -0.183137 -0.31643 -0.156732 -0.0498735 0.13534 0.111302 0.184324 0.0948007 -0.0531298 0.0374899 -0.086426 0.133455 0.0139164 -0.118983 0.0279988 -0.311051 -0.236825 -0.0930922 -0.0291082 0.194906 0.157185 0.189551 -0.0305161 0.0636485 0.316838 -0.0276997 0.0745481 -0.149341 -0.174707 0.0481123 0.021254 0.133963 0.0591994 -0.119684 -0.366299 -0.400603 -0.358167 -0.124188 0.255578 0.247107 0.36739 -0.0992079 0.104037 -0.0312526 0.0219974 0.158696 -0.247638 -0.22376 -0.14707 0.117047 0.0636149 0.229006 0.279443 0.0142523 -0.0541485 -0.0115092 0.132738 -0.0845351 0.177526 0.328949 -0.204662 0.372532 -0.0493852 0.0214041 0.184687 0.0344699 0.0372527 -0.0738237 -0.30316 -0.271906 0.257961 -0.156141 -0.0725032 -0.378925 -0.196058 -0.229345 -0.176756 -0.0157041 0.0235051 -0.0136956 -0.314137 -0.339968 0.120309 0.368454 -0.0469701 -0.594196 -0.378175 -0.455488 -0.308707 -0.0232849 -0.00924505 
0.0682939 -0.0219916 0.0923501 0.18029 0.10694 0.0598385 -0.132323 0.164675 0.0516166 -0.0643021 -0.0238732 0.0539866 -0.145034 -0.0396516 0.149617 -0.0293236 0.143991 -0.0751234 -0.0467916 -0.0391422 0.0133132 -0.0847868 -0.00897771 0.0150614 -0.0413517 -0.207657 0.0472862 0.0854438 0.0189744 0.00696894 0.133495 0.0526886 -0.0664099 -0.143298 -0.176392 -0.0254675 -0.034557 -0.178669 -0.126032 -0.224535 -0.112779 -0.00919712 0.0865842 -0.161824 -0.343414 -0.250892 -0.119873 0.0160946 0.00826079 -0.152564 -0.240325 0.0744992 0.0976976 -0.131132 -0.109839 -0.0101158 -0.43647 -0.302972 -0.122279 0.141071 0.0243972 -0.163817 -0.082838 0.230373 0.147516 0.129819 0.0548481 -0.148602 -0.133281 -0.211554 -0.10902 0.112159 0.0334951 -0.101344 -0.160982 0.0477641 0.0467679 -0.0050371 -0.216078 -0.168216 -0.154975 -0.0976037 0.0520576 0.0853822 0.0540962 -0.119636 -0.00795981 0.0448461 -0.0893724 -0.0880809 -0.275492 -0.11611 -0.0869517 -0.198767 0.0517474 0.0703586 0.0412526 -0.0982132 0.0208955 0.0966155 0.16406 -8.16575e-05 0.0365905 -0.0128065 0.0159551 -0.0311765 0.105307 0.14349 0.077341 0.0757029 0.0361624 0.235933 0.285348 0.264984 0.02303 -0.168342 0.0119385 -0.0675873 0.071841 0.141703 
-0.0973823 0.0924707 0.0673541 0.247569 -0.147522 -0.259713 -0.545133 -0.0292441 -0.0887942 0.0756965 -0.0333852 -0.142915 -0.188506 -0.14807 0.263049 0.265529 -0.0735827 -0.334308 -0.459866 -0.128766 -0.161174 0.0287726 -0.167414 -0.126266 -0.15819 -0.111454 0.0703959 -0.229289 -0.133587 -0.363146 -0.466356 -0.167808 -0.434514 -0.164755 -0.0544682 -0.0802283 -0.26955 -0.0778406 0.207231 -0.341636 -0.131929 0.111863 -0.108755 0.0838065 -0.00547638 -0.0523626 -0.0732671 0.0701392 -0.228122 -0.134836 0.0318318 -0.15879 0.0260787 -0.032324 -0.363356 -0.0636267 -0.031211 0.0723774 0.00940695 0.00764576 -0.0861252 -0.217527 -0.125185 0.11888 -0.00884342 -0.032827 0.147657 0.0341665 -0.0484797 -0.13608 0.0463871 0.0202387 -0.104542 -0.0845957 -0.233008 0.177444 0.152128 0.0717019 0.450814 0.156848 0.276454 -0.0727858 -0.0030943 -0.0659102 -0.00551611 0.0476511 0.0084087 0.114463 -0.142758 0.335514 0.335089 0.428073 0.144581 -0.146566 -0.115881 0.00536718 0.0978295 0.380511 0.470315 0.0692663 0.240223 0.0246589 0.39378 0.394825 0.277736 0.128636 -0.0168066 0.0372992 -0.0424857 0.104931 0.219665 -0.139372 -0.314426 -0.201579 0.169319 0.551042 0.993611 0.441185 -0.0574808 -0.0721267 
0.0107799 -0.0724214 0.187604 0.119112 0.156151 0.118581 0.0812761 -0.0157541 0.0121753 0.00341992 0.12496 0.0945665 0.083357 0.083995 -0.00873963 0.0677145 0.0363986 0.106045 0.0992923 -0.0243369 0.139278 0.0742341 0.129921 0.0375737 0.140742 0.0413579 0.154996 0.169452 0.166483 0.109863 0.100818 0.075072 0.237766 0.133869 0.0636045 0.0878652 0.0817698 0.0776416 0.0288639 0.017032 -0.0959944 -0.343135 -0.368631 0.0409649 0.221679 0.195865 0.0276559 0.107977 0.0691503 0.0525275 0.163195 0.0966872 -0.0114089 -0.186836 0.444218 0.274845 0.285064 -0.0528679 -0.0188725 0.114798 0.0508675 -0.0693468 0.166198 0.0171058 -0.100566 0.0197147 -0.163717 0.19237 -0.0537611 -0.0307229 0.0714411 0.0718308 0.0609184 -0.0733834 0.0717513 -0.108938 -0.0536006 -0.364773 -0.363902 -0.385005 -0.16421 -0.106201 0.122178 0.0279365 0.15943 -0.0699608 -0.319985 -0.314078 -0.143223 -0.157605 -0.389658 -0.590479 -0.207066 0.116095 0.0295422 0.115298 -0.119831 -0.576031 -0.376563 -0.370693 0.270044 0.0891567 -0.174572 -0.208184 -0.379788 -0.240038 -0.0564309 0.157386 -0.0533953 -0.273282 -0.414443 0.0209301 0.0452902 0.232123 0.124974 -0.342658 -0.928984 -0.281648 -0.0439594 0.147167 
-0.0396055 -0.000252164 -0.0878638 -0.0523425 0.00723165 0.0206771 0.027307 -0.0636023 0.384143 0.144407 0.0759436 0.00257139 -0.0371325 0.114485 0.304163 0.0562587 0.0925372 -0.178612 0.0233094 0.177721 0.188485 -0.0130299 -0.023888 -0.0115889 -0.00703833 0.0581787 0.255679 0.363133 0.279944 0.0640087 0.0294842 0.169025 0.237753 0.0214245 -0.203552 -0.0582101 0.052481 -0.213879 0.0958503 0.127606 0.194348 0.0836849 0.059265 -0.372032 -0.458198 -0.290266 -0.216327 0.0287285 0.11871 0.0309729 -0.0134924 -0.294284 -0.206888 0.191165 -0.259854 -0.11153 -0.466042 -0.15623 -0.0150718 -0.0209022 0.0697679 0.0504122 -0.305069 -0.38659 -0.505215 0.0751265 0.0790003 -0.131611 0.167849 0.12588 0.0397396 -0.00513656 0.0462302 -0.0416151 -0.178248 -0.347259 -0.256651 -0.0737285 0.154047 0.249613 0.291688 0.0184149 0.015661 0.0135993 -0.0139303 0.080582 0.042312 -0.196811 -0.0447418 0.09364 0.0852652 0.292742 -0.134005 -0.0700497 0.0672225 0.0235941 0.12217 0.00080256 -0.229528 -0.043502 -0.253442 -0.0836859 -0.391521 -0.279431 -0.118917 -0.0328705 0.146814 0.034833 0.18644 -0.0673706 -0.115468 0.0772157 0.0324464 0.0196936 -0.36662 -0.64034 -0.569535 -0.159481 0.100375 0.156437 
-0.0633273 0.291701 0.374393 0.262603 -0.0154224 -0.0937762 -0.147812 0.145873 0.370292 0.284577 0.29135 -0.0735175 -0.0472442 0.105959 0.702095 0.324154 0.055977 -0.356282 -0.195263 0.107904 0.422143 0.404596 0.0592832 -0.157964 -0.187399 -0.00444506 0.232066 0.0357439 -0.0779869 -0.281042 -0.375265 0.0742645 0.376145 0.22153 -0.029693 -0.0340571 -0.151643 -0.0958114 -0.0731016 0.371017 0.248473 -0.159313 -0.204544 -0.0112739 0.320213 0.106392 -0.119209 0.0346542 -0.14557 -0.110061 0.130557 -0.0155136 -0.130642 -0.341539 -0.211096 -0.0145874 0.27557 0.16108 -0.00988091 -0.040078 -0.0510605 -0.134341 -0.166206 -0.161727 -0.155245 -0.176329 -0.168414 -0.432835 0.058082 0.0671888 0.0177613 -0.0822543 0.042271 -0.0446809 -0.204931 -0.253018 0.0592783 0.14715 -0.113958 -0.198514 -0.296891 -0.110351 -0.00796544 -0.108756 -0.0442463 0.00878347 -0.0835227 -0.108238 -0.023942 -0.178391 0.0140686 0.0623149 0.0111603 -0.237486 -0.0280001 -0.119024 -0.114853 0.00656387 -0.260561 -0.180514 0.129216 -0.074456 0.115042 -0.0999382 0.000925597 -0.168058 0.00526109 0.0209298 -0.0805279 -0.128259 -0.472972 -0.550373 -0.0741317 0.0217626 -0.182821 -0.0463502 0.162675 0.125099 0.0136656 -0.0171244 
0.0239099 -0.226944 -0.541811 -0.541407 0.0944718 0.0176735 0.0282097 -0.211117 -0.201628 -0.297561 -0.175473 0.0658421 0.320403 -0.0428797 -0.709906 -0.475924 -0.269961 0.209139 0.168244 0.100533 -0.660373 -0.29336 0.210376 0.249472 0.286079 0.137263 -0.246542 0.0151728 -0.068263 0.26608 0.167488 -0.0333495 -0.148963 -0.20701 0.23334 0.182327 0.260259 0.19648 -0.183451 -0.0461791 -0.0263118 -0.0862853 -0.18366 -0.0889857 -0.234493 0.0607281 0.155059 0.1725 0.205848 0.227253 -0.15217 -0.190682 -0.0947531 0.234377 -0.0548339 -0.382469 0.0599991 -0.0596083 0.0694404 0.0314363 0.206909 0.206612 -0.1624 -0.462142 -0.0932198 0.222221 -0.0703805 0.101667 0.00418856 0.342471 0.124433 0.0195587 0.0768194 0.00825431 0.0109142 -0.439291 -0.260102 -0.283056 0.0656294 0.314311 0.00360822 0.341206 0.165849 0.136047 0.122377 0.0470039 0.0132204 0.0655426 0.0534527 -0.0754287 0.130036 0.272871 -0.187543 0.420196 0.0535865 0.108905 0.0624352 -0.242876 -0.0942237 0.571894 -0.150021 0.480146 -0.0438712 0.429399 -0.0913256 -0.081026 0.138804 0.189195 0.0268048 -0.22493 -0.283189 0.600929 0.151933 -0.0494899 0.103897 -0.0790584 -0.524685 -0.210865 0.0532112 0.121479 
0.0848087 -0.0236191 -0.139903 0.120316 0.411055 0.427467 0.164163 0.00208178 -0.0278991 -0.221749 -0.0149802 0.0962689 0.0225754 -0.204888 -0.524609 -0.0143401 0.0266937 0.273566 0.185415 0.0489359 -0.275908 -0.29131 -0.120691 -0.000257896 -0.00533348 -0.0733972 -0.050866 -0.148008 0.113026 0.149001 0.183878 -0.322746 -0.147882 -0.104542 -0.181356 -0.0122599 -0.04492 -0.00761692 0.0467339 -0.289604 0.00127637 -0.263391 0.0221983 0.143688 -0.137408 0.00497768 -0.196128 0.105809 0.0318163 -0.0405623 0.0554658 -0.0910929 -0.295323 -0.605712 -0.0436475 0.289467 0.0267708 -0.288671 -0.0751401 0.0992698 0.095124 0.0467822 0.058262 0.334632 0.0734502 -0.338526 -0.0453499 0.481209 -0.0423165 -0.21269 -0.0699585 0.0567516 0.0957326 -0.0232542 0.0773685 0.43596 0.124595 -0.070067 0.316726 0.124686 -0.360952 -0.0443861 -0.0519904 0.11187 0.0483872 -0.0160001 -0.0428391 0.297589 0.292087 0.0405803 -0.0386765 -0.143624 -0.235304 -0.0441262 0.0435532 0.00590283 0.00795618 -0.0662821 0.118568 0.107697 -0.0506254 -0.0277073 -0.281143 -0.297627 -0.24825 0.020209 -0.017595 0.128104 0.0737209 -0.14819 -0.0622426 0.243029 -0.120616 0.133076 -0.0265887 -0.316138 -0.0969308 -0.219994 0.0524474 0.0631116 
0.0985526 0.135159 0.348856 0.0814331 0.0386678 -0.12523 -0.0375856 0.239125 -0.0543071 -0.103651 -0.0106995 -0.0824887 -0.107472 -0.104857 0.534772 0.155539 -0.0753846 -0.300943 0.0334769 0.00578311 -0.0357131 -0.296941 -0.0832465 -0.185199 -0.198614 -0.181482 -0.0662923 0.224407 0.180183 -0.304076 -0.157173 0.623109 -0.0643746 0.185696 0.0404045 -0.0753356 -0.0402847 -0.214632 -0.242834 -0.156293 -0.0172926 -0.0203558 0.0375787 0.532793 0.327998 -0.06123 0.0449886 -0.0622102 -0.107059 -0.15874 -0.217859 -0.31033 -0.118502 -0.121045 0.126147 0.322038 -0.0445464 0.00835925 -0.0642359 0.0456026 -0.0558879 -0.15269 -0.0130896 0.224709 -0.214684 -0.109794 0.0404185 -0.146041 0.123976 -0.0950958 0.074436 0.066352 -0.0516731 -0.248448 0.0500271 0.570776 0.25991 0.203473 -0.215012 0.087881 0.246748 0.0975706 0.00500781 0.0686766 0.0394218 -0.0271178 0.0193966 0.150471 0.173951 -0.160876 -0.456203 -0.126492 0.0693583 0.130433 0.0688086 0.0619406 0.206071 0.479974 0.164212 0.0251879 0.21673 -0.464412 -0.082712 -0.200466 0.0889 0.194919 0.0731722 -0.0402809 0.0310526 0.0558492 0.0600022 -0.0792585 -0.0553868 -0.210888 -0.138973 -0.148235 -0.112573 -0.186472 -0.0110227 0.0609248 
-0.0756742 -0.0233706 -0.0284075 -0.138641 0.0821355 0.06961 -0.0205433 -0.0659641 -0.228957 -0.0385267 0.0386786 -0.132605 -0.081119 0.122009 0.0791635 -0.0196128 -0.0128044 0.132709 0.14518 -0.0520847 -0.261967 -0.0199508 0.0145495 -0.0806966 -0.0986575 0.0679325 -0.0494641 0.111282 -0.0436945 0.14096 0.0224428 0.104549 -0.109028 0.258483 0.0206083 -0.076665 -0.107512 -0.103283 -0.171419 -0.0384042 0.0445362 -0.318823 -0.353113 0.241038 0.38279 0.121908 -0.0495806 -0.0149954 -0.118727 -0.0100203 -0.099449 -0.117124 0.164558 -0.156131 0.495891 0.49948 0.351324 -0.0435138 -0.119339 -0.0473951 -0.00893403 -0.112709 -0.0794644 0.251396 0.202887 0.0386559 0.184624 0.437833 0.0936422 -0.081233 0.048132 -0.0653993 0.0499324 0.026992 -0.113124 0.287656 0.239458 0.113386 0.152736 0.155379 0.0295295 -0.0835904 -0.00978807 -0.0502486 -0.0210571 0.0732895 -0.0676234 -0.0911812 0.111688 0.187966 -0.00127125 -0.186343 -0.208577 0.0744475 0.0718048 0.00290248 0.176769 0.377069 0.150191 -0.268107 -0.240705 -0.190214 -0.10434 -0.2669 0.0283631 0.168288 0.114457 -0.0128413 0.0934759 0.194699 0.120094 -0.0679185 -0.272274 -0.312234 -0.31637 -0.259757 0.0216479 0.0301017 0.15288 -0.0746343 
0.16534 0.159008 0.0807656 0.1002 0.0543291 -0.0291296 -0.108493 0.168293 -0.220627 -0.136434 -0.121328 -0.0631616 -0.0504867 -0.118466 0.119167 -0.0104407 -0.224818 0.0119457 -0.172357 -0.0858923 -0.468668 -0.0777135 -0.00644443 0.0139052 0.0826363 -0.133113 -0.203768 -0.297531 -0.241337 -0.0988189 0.110209 0.114856 -0.241459 -0.0234827 0.100873 0.0438226 -0.0595554 -0.0631057 -0.249213 -0.452531 -0.18381 0.317863 0.349855 0.224298 0.265459 0.294171 0.186803 0.0151992 -0.0563392 -0.243116 -0.171093 -0.0420148 0.0907017 -0.164916 -0.394462 -0.194459 0.195968 0.152739 0.0234003 -0.103437 -0.0852453 -0.224188 -0.172937 0.226202 0.295444 -0.10242 0.00921617 0.0654502 -0.0292902 -0.0383942 0.0873218 0.0289298 0.00968281 -0.0426668 0.0454998 0.203622 -0.0860876 0.210582 0.31206 0.499102 0.00833835 -0.145778 0.0118953 -0.0211134 0.00785055 -0.176488 0.187974 0.128053 -0.180584 -0.211314 0.446447 0.289245 0.0106182 0.025131 -0.050906 0.0143731 -0.101388 0.0377298 0.462793 0.469016 -0.282665 -0.205287 0.0942203 0.180069 0.0711842 -0.138144 -0.0826147 0.0408905 0.046024 -0.123671 0.264883 0.397313 -0.000179969 -0.295797 -0.282508 -0.141039 0.102994 0.0347363 -0.0303111 -0.0624851 
0.00581668 -0.117409 -0.0411067 0.277785 0.208695 0.321116 0.372198 0.300024 -0.206983 -0.160491 -0.0377411 -0.0591588 0.0240717 -0.0480007 0.411883 0.388422 0.258682 0.215244 0.411251 0.139962 -0.120189 -0.0941706 -0.113183 0.0484949 -0.01058 -0.12443 0.0568247 0.287516 0.285752 0.173466 0.0732276 0.310346 0.173206 0.100942 0.0401721 -0.040319 0.0813257 -0.0447082 -0.0547516 0.00669793 -0.0827025 0.0623014 0.107806 -0.0462107 0.250655 0.207414 0.138194 -0.00603773 -0.115856 -0.194961 -0.216069 -0.358726 -0.245261 0.401235 -0.184752 -0.103485 -0.0194575 0.364093 0.0963921 -0.0152625 -0.127081 -0.214786 -0.324016 -0.47645 -0.327842 0.466458 -0.068981 -0.634169 -0.0883769 0.127956 0.130311 0.0565246 0.0254928 -0.320821 -0.404074 -0.356021 -0.555544 -0.215202 0.177226 0.160992 0.179296 0.303878 0.0524097 0.0711346 -0.0891844 -0.27727 -0.174069 -0.398511 -0.354751 0.125545 0.265226 0.316459 0.0603693 0.111989 0.0124784 0.0214683 0.0235739 0.121983 -0.0107991 -0.101578 -0.230835 0.0785546 0.00983835 -0.154128 -0.0921401 -0.362239 -0.00170756 -0.00861045 -0.0209259 -0.0323297 0.254275 0.00463842 -0.301434 -0.269962 0.121945 -0.0843203 -0.202585 -0.306618 0.0878741 -0.0218422 
0.119692 -0.135346 -0.09891 0.0985809 0.261002 0.337688 0.127288 0.309051 0.0759489 -0.0900581 -0.102028 -0.0426696 0.0629827 0.138214 -0.0353866 0.08992 0.144364 0.490867 0.291196 0.0889071 -0.05634 -0.376723 -0.231936 0.00745503 0.030171 -0.021815 -0.271667 -0.180851 0.251826 0.363205 0.467615 -0.0317655 0.105219 0.0262757 -0.0812142 -0.00805925 0.0224676 0.00152385 -0.106654 -0.591553 -0.000371165 -0.0140948 0.241792 -0.228444 -0.250627 -0.0718895 -0.0141878 -0.120302 -0.102635 -0.0391276 -0.380125 -0.189442 0.066935 -0.259533 0.00320154 0.0577623 0.0506471 0.0940847 0.0318674 -0.0489346 -0.100717 -0.0319472 -0.225024 0.190202 0.248987 -0.163691 0.189168 0.131964 0.131144 -0.185844 -0.0224904 -0.0520469 -0.0652238 -0.132971 0.0789255 0.360247 0.0310183 -0.0814107 -0.0395478 0.283518 -0.421477 -0.00301774 0.0711907 0.013179 -0.115133 -0.0509542 0.194705 0.0755474 0.0526637 -0.222742 -0.0235796 -0.0277232 -0.163098 -0.187045 -0.0775671 -0.0566683 0.198725 0.414851 0.65135 0.510503 -0.191117 -0.353684 0.117564 -0.0129588 -0.0663958 0.0993207 -0.0525168 -0.0835581 0.0319471 -0.0105537 0.64853 0.368154 0.0814351 0.0475006 -0.23615 -0.370323 -0.234873 -0.171005 -0.0234299 -0.145 
0.0928922 0.116658 -0.112359 -0.143999 -0.0699471 -0.162521 -0.0150407 -0.123124 -0.0856821 -0.0622233 -0.0243886 -0.0981993 -0.0466215 -0.251676 -0.163457 -0.172601 -0.256288 -0.0431704 -0.117022 0.0696902 -0.160313 -0.19595 0.0322262 -0.0738317 0.0231433 -0.137352 -0.182401 -0.0959483 -0.167513 -0.109621 -0.00970073 -0.0393087 -0.126221 -0.217849 -0.0641221 -0.0558438 -0.097205 -0.0129691 -0.170527 -0.174798 -0.125112 -0.0766686 -0.232574 0.0789979 -0.226068 -0.146968 -0.0421477 0.00769935 0.0549208 -0.120436 -0.0928484 0.00545882 -0.056379 0.241488 0.061643 -0.057658 -0.148024 -0.154714 -0.0263537 0.0283462 0.0237788 -0.174766 0.140105 0.0503906 -0.106934 0.12576 -0.106891 0.0487578 0.112169 0.0315408 -0.0317408 -0.0692687 -0.0828599 0.0927707 0.0885997 -0.0917345 -0.13646 -0.224727 -0.40586 0.147098 0.304763 0.0861639 0.051346 0.0414108 0.0342068 -0.025464 0.176258 -0.165012 -0.250004 -0.393917 -0.165591 0.308038 0.434362 0.175447 0.00338013 -0.00901878 -0.069174 0.0525865 0.306636 0.371767 0.0955856 0.378544 0.710251 0.386385 0.222053 0.0909629 -0.155584 0.040432 0.0806603 0.0563627 0.00993923 0.155158 0.186635 0.209619 0.388937 0.729543 0.308602 0.226519 -0.114739 -0.0379935 
-0.132413 -0.133419 -0.49259 -0.236562 0.035867 0.145977 0.228347 0.0961524 -0.0295727 -0.057255 -0.0716941 0.055948 -0.107756 -0.170238 -0.399683 -0.33751 -0.126434 -0.239283 -0.134153 0.34666 0.268824 0.077061 -0.0146408 -0.0234204 0.00805117 0.0321045 0.162887 -0.0157088 0.277807 0.0843669 0.0616123 0.412155 0.170611 -0.0347342 0.0554662 -0.0692473 0.0192667 0.128541 0.0295803 0.293368 0.292988 0.071634 0.0343657 -0.122058 -0.0765692 -0.110213 -0.195292 -0.0329144 0.0116895 0.232965 0.0951045 0.039421 -0.310229 0.241511 -0.139653 -0.25818 -0.230708 -0.233566 -0.0944756 -0.0907535 0.0152895 0.305684 0.125306 -0.202349 -0.321534 -0.0279806 -0.0736411 0.0920539 -0.00994896 0.200041 0.022424 0.0499618 0.014424 0.0816095 -0.00263228 -0.221729 -0.321818 -0.0403207 0.200836 0.245911 0.192644 0.0191253 -0.0939218 0.0179105 0.0861209 0.184925 0.22774 0.254822 -0.0984013 0.315495 0.181351 0.423161 0.174989 0.145119 0.045139 0.0468542 -0.0218114 -0.0232768 -0.268987 -0.0588948 -0.269348 0.0972807 -0.0559982 0.260106 0.0618298 0.2062 -0.0315939 0.0772644 0.0925785 -0.0743626 -0.307546 -0.255615 -0.29819 -0.204392 0.257851 0.266521 0.0604716 0.104987 -0.00702956 -0.0697437 
0.0110891 0.0524951 0.0416825 -0.0224327 -0.0825557 -0.107602 0.152248 0.105685 0.0114817 -0.0954012 -0.0508562 0.0850248 -0.000606482 0.0300017 0.0387425 -0.137452 0.00164688 -0.147764 0.151042 0.0808956 0.125497 -0.174181 0.0837417 0.124242 0.00659927 -0.0681144 -0.131439 0.0723338 -0.061343 0.0743348 0.314614 0.304662 0.211249 -0.157735 -0.115934 -0.0210073 -0.0541662 0.0520351 -0.104982 -0.106398 -0.328844 -0.0350257 0.0933434 -0.498492 -0.15396 -0.16921 0.0382878 0.0904627 0.118757 0.0711234 -0.231885 0.0098478 0.27023 0.535799 0.265452 -0.162253 -0.3112 -0.128705 0.0627249 -0.0286552 -0.0169428 0.0725356 -0.0125656 -0.0426273 0.270076 0.270709 0.235935 -0.0636329 0.194196 -0.0204685 -0.0149543 -0.0118034 -0.0743648 0.0961626 0.0158458 -0.0368161 0.118736 0.151413 -0.0129226 0.185106 0.0172121 -0.185182 -0.1017 -0.00804188 0.0853554 0.100315 0.0387643 -0.225667 -0.045985 -0.344318 -0.39564 -0.0969226 0.102429 -0.227062 -0.011351 -0.0487844 -0.0960791 -0.00510856 0.121479 0.0449603 -0.0291841 -0.255847 0.112568 -0.0178297 0.0825669 0.0686803 0.0100728 -0.0129417 -0.11074 -0.0114442 0.139145 -0.0936059 -0.138926 -0.324847 -0.124343 0.0468 0.164234 0.190292 -0.00513588 0.0491108 
-0.137653 0.11636 -0.1304 -0.00538926 -0.251674 -0.0785145 -0.201996 -0.0566769 0.408258 0.192052 0.0405173 0.0225184 0.086175 -0.108331 -0.143139 -0.108985 -0.142514 -0.0766486 -0.136796 0.0551777 0.39663 0.291631 0.0601581 0.158933 0.0765379 -0.0436368 0.0457708 -0.248245 -0.100744 0.0422257 -0.0659739 -0.367054 -0.000523081 0.0350742 -0.147217 0.168315 0.0818391 0.079755 0.0164096 -0.143786 -0.14082 -0.0394118 -0.0918655 -0.598955 -0.325332 -0.282471 -0.17799 0.0930157 0.0639566 0.0602082 0.306174 0.168304 -0.253321 -0.302516 -0.0378058 -0.20005 -0.166388 -0.288451 -0.173663 0.125384 0.0320582 0.0650033 0.368673 0.0988289 -0.0555476 -0.315625 0.0412371 0.116624 0.0106836 -0.0909087 -0.0949053 0.0636085 0.0327305 0.195792 0.292459 0.186047 -0.0874523 -0.0110239 0.273845 0.167104 -0.226873 -0.25464 -0.125348 0.0834952 0.118226 0.153869 0.0356797 0.145232 0.0424808 0.243182 0.0400262 -0.0663481 -0.261031 -0.311557 -0.0318764 0.194333 -0.142309 -0.306489 -0.157364 0.0687887 -0.0299073 -0.116034 0.0961623 -0.177146 -0.0887765 0.171993 0.116535 0.0431601 -0.080677 -0.192928 -0.429297 -0.154433 0.138122 0.333629 -0.0742983 0.0890064 0.21644 0.200069 0.0369376 0.08546 
-0.0337954 0.261963 0.124406 0.138808 0.0445917 0.0815132 0.248542 0.377182 0.126595 0.0599094 0.136319 -0.0234512 -0.0108553 0.0297894 0.235335 0.289903 0.386573 0.231037 0.102312 0.345826 0.352362 0.0840147 -0.0480782 -0.0405652 0.0312385 0.0581549 0.356414 0.142862 0.419538 0.29249 0.221378 0.478188 0.327304 0.230948 0.10699 0.041916 -0.0131989 0.0121571 0.0500401 0.321161 0.181575 -0.0668615 0.0602591 0.232684 0.536328 0.403671 0.0273491 -0.0886234 -0.107782 -0.0692276 0.241874 0.294242 -0.231188 -0.195389 -0.446756 -0.26091 0.148522 0.423018 -0.101279 0.030288 -0.169538 -0.00884074 0.0909958 0.232308 -0.212623 -0.00671289 -0.238597 -0.48885 -0.279525 0.16975 0.0439109 -0.07969 0.089951 0.0193437 -0.0105633 -0.187768 -0.132399 0.0930875 0.134566 -0.374109 -0.322763 -0.236781 0.00256781 0.0657485 -0.0197715 -0.0812258 -0.196925 -0.190532 -0.0974099 -0.018795 0.242786 -0.0494242 -0.24164 0.0148046 0.0581756 -0.0881839 -0.143878 -0.150253 -0.37224 -0.204689 -0.118718 -0.429112 -0.370838 -0.0564739 -0.121315 -0.141293 0.23557 -0.098186 -0.148168 -0.300753 -0.309304 -0.0806718 -0.232931 -0.218268 -0.364192 -0.319703 0.0496682 -0.0819568 -0.0541266 -0.0485257 
0.0576007 0.0580786 -0.00249623 -0.115782 -0.0330371 -0.231555 -0.306898 -0.133581 -0.237525 -0.0281259 -0.0489965 0.0401864 0.0511214 0.145507 0.0244401 -0.354688 0.0187315 -0.575564 -0.417045 -0.326651 -0.319797 -0.219283 0.112324 0.000742336 0.179279 0.0273359 -0.205666 0.03115 -0.253283 -0.308609 -0.184213 0.175076 -0.191115 -0.0366966 0.13456 0.0329485 -0.00233511 0.169091 -0.157752 -0.336064 -0.0380703 0.305169 0.534734 0.181004 -0.163861 0.0175413 0.0148005 0.0889799 -0.0395037 0.0919119 -0.248862 -0.445399 0.240994 0.216627 0.202365 -0.037734 -0.12454 -0.0241556 0.104103 0.0432301 -0.0139038 -0.0142275 -0.180145 -0.188348 -0.0341275 0.292715 -0.18297 -0.386031 -0.126864 0.0391998 -0.0199588 -0.0677383 0.0513888 0.0410271 0.0936872 0.0202876 0.20867 0.233067 -0.369091 -0.229732 -0.170825 -0.120355 0.0487177 -0.0121038 0.00344091 0.142865 0.00358871 -0.128432 0.252792 -0.0967718 -0.424161 -0.158422 -0.0821232 -0.0438125 0.0894145 -0.0401642 0.124195 0.409263 0.213726 0.155849 0.249347 -0.253303 0.18677 0.270625 0.205425 0.100024 0.0108135 -0.0351591 0.0919959 0.075119 -0.0519583 0.0997695 -0.0450471 -0.373063 0.28232 0.265894 0.0355643 0.00102193 0.0220933 -0.0689544 
0.0396517 0.0216968 0.133061 0.0326846 0.166293 0.289781 0.114163 0.12324 -0.0750535 -0.0716509 -0.139797 0.0371878 -0.0761644 -0.125775 -0.105776 -0.0319093 -0.00656031 0.266613 0.334817 -0.20525 -0.371628 -0.271075 -0.0774085 -0.167373 -0.0808289 -0.217123 0.137502 -0.0763673 -0.0685761 0.025211 0.0504174 -0.103672 -0.0357038 0.231585 -0.146278 0.0290394 -0.112447 -0.099174 0.121528 -0.403531 -0.0971297 -0.0963637 -0.125802 0.211515 0.17966 -0.123256 -0.127516 0.0957309 0.0730744 0.0140848 -0.0764501 -0.1208 -0.263017 -0.740402 -0.201985 0.443047 0.303597 -0.372516 -0.075848 0.114847 0.0650358 -0.0637155 0.168004 0.437431 -0.105975 -0.4825 -0.110939 0.623751 0.229689 -0.27832 -0.00881433 0.112783 0.0382125 0.0694229 0.248763 0.441319 0.21703 -0.058424 0.316617 0.182024 0.0165234 -0.106619 -0.0558838 -0.0157047 0.00189748 0.0318917 0.127938 0.219333 0.351888 0.0575557 0.0802456 -0.340642 -0.253186 -0.0919219 -0.00138471 0.0616337 0.115292 0.0126825 0.263609 0.0544583 0.0021842 -0.308292 -0.305045 -0.42489 -0.128664 -0.0354832 -0.105848 -0.0100406 -0.132502 0.00436641 -0.0653018 0.0895925 0.10149 0.0740846 -0.505571 -0.449379 -0.162318 -0.21903 0.0283241 0.0978888 
0.0351613 0.0255129 -0.0412549 -0.0931385 -0.136217 -0.357684 -0.012845 -0.138124 -0.0236207 -0.0309377 0.000695723 -0.0262381 -0.0247171 -0.292032 -0.275123 -0.120713 0.0134558 -0.221726 -0.187087 0.0868321 0.0604998 -0.107238 0.0536337 -0.0408588 0.035034 -0.157866 -0.0287882 0.15152 -0.0803985 -0.0536491 -0.216905 -0.278184 0.0745962 -0.204287 0.135089 -0.00165998 0.00597161 0.101784 -0.0850312 -0.137171 -0.111325 -0.0805695 -0.25456 -0.218756 -0.31079 -0.216112 0.0942083 -0.0797421 -0.0657159 0.0843626 0.123103 0.0231415 -0.171357 0.343977 -0.0732872 -0.174625 -0.179777 -0.0602636 0.0219665 -0.110441 -0.00369783 0.0507382 0.28547 -0.0625189 -0.339862 0.127584 -0.360546 -0.232228 0.0630871 0.200019 -0.0708278 -0.0218322 -0.00839632 0.0805928 0.264271 -0.104181 -0.0354371 -0.197296 -0.43331 -0.273728 0.186439 0.280594 -0.0196942 -0.0880733 0.0348916 0.0256887 0.085025 0.0051212 -0.247944 -0.377643 -0.352012 0.268644 0.290421 0.184561 -0.0112116 -0.0780195 -0.12976 -0.0589097 -0.115858 0.122777 0.531035 0.631206 0.753487 0.538839 0.126071 0.0698965 -0.117933 -0.0166792 -0.00195583 -0.210613 -0.172476 0.0143564 0.154467 0.214334 0.698922 0.867348 0.346089 0.253495 -0.169981 -0.0648297 
0.107509 0.0692245 0.037277 0.0514698 -0.0693931 -0.0935484 -0.40371 -0.0588373 0.0502863 0.161035 0.084877 0.0258785 -0.0746977 -0.152728 -0.167356 -0.152958 0.0303196 -0.343837 -0.120473 0.012308 -0.0339864 -0.016686 0.0487435 0.0259958 -0.109812 -0.163371 -0.081088 0.222882 -0.0799885 -0.402729 -0.287632 -0.0270598 0.0642871 0.0573699 -0.069292 0.0136948 -0.0270928 -0.073533 -0.0524662 -0.043459 -0.0568261 -0.455186 -0.576303 0.0910642 -0.186784 -0.256898 -0.0711751 0.0472558 0.0701347 0.0518439 -0.102552 0.0913658 0.268103 -0.120724 -0.013263 0.133721 -0.305001 -0.381975 -0.0367829 0.0642907 0.163329 0.0145267 -0.158736 0.31844 0.117954 -0.0622369 0.175005 0.436771 -0.106692 -0.146889 -0.0841937 0.154669 0.112389 0.109086 -0.111667 0.140115 0.242221 -0.0592969 -0.13765 -0.0411909 -0.0798761 -0.132372 0.00912611 0.163147 0.0593917 0.193331 0.0362734 0.130168 0.0268876 -0.330466 -0.397307 -0.144856 0.0167775 -0.0599277 0.0562382 0.0157041 0.155269 0.106779 -0.0191465 0.308194 0.244097 0.0538819 0.0470103 0.145905 0.192092 0.157883 0.195898 0.114687 -0.0400726 -0.162377 -0.168101 0.0930051 0.179059 0.0840978 -0.0322691 -0.0282335 0.0189305 -0.0304928 0.0769034 0.0165951 
-0.0933643 -0.149209 -0.0235138 0.0288541 -0.0243523 -0.0442942 0.138807 0.220967 0.342257 0.10835 0.0565881 0.0298721 -0.197485 -0.201857 -0.0265231 -0.0641644 -0.0885637 -0.133157 -0.0389121 0.135792 0.491597 0.107611 0.00831314 -0.12178 -0.139914 -0.122696 -0.329236 -0.0358459 -0.303882 -0.0622128 0.0994288 0.268856 0.077178 -0.103489 -0.291401 -0.0660151 -0.0731437 -0.167778 -0.107744 -0.213053 -0.176823 0.0994229 -0.00208513 -0.215764 -0.289546 -0.510938 -0.209693 -0.000689292 0.0507103 0.00631325 -0.267088 -0.139929 0.0238692 0.359363 0.646924 0.00687332 -0.467252 -0.461671 -0.0896787 -0.00428288 0.0958161 -0.178768 -0.202378 -0.252561 -0.143344 0.0179903 0.386894 0.346657 -0.0708356 -0.293404 -0.0814939 0.0201065 -0.0968527 0.0236156 -0.116901 0.0211804 0.0655839 0.27473 0.159833 0.289393 0.402084 0.000631767 -0.112798 0.158636 -0.0133012 -0.0570506 0.140001 -0.0313285 0.0992611 0.302422 -0.430137 -0.0790111 0.198348 -0.0317082 0.0299965 0.150623 -0.0275982 0.00988091 0.143718 -0.150189 -0.0274061 0.21455 -0.153957 -0.331373 -0.0889205 0.31454 0.0208738 0.1092 0.0284054 0.0230793 -0.128212 -0.131235 -0.0211115 0.175236 0.315519 0.118915 -0.447044 0.0800995 -0.00298678 0.101038 
-0.0286477 -0.0761359 -0.182003 -0.063582 -0.197853 -0.319392 -0.142304 -0.0989413 0.00507415 -0.0808347 0.107604 -0.104926 0.0953346 0.122714 0.116949 0.0254576 -0.0899741 -0.0234761 0.0601761 -0.142853 0.101449 0.219047 0.125962 -0.10661 0.0647386 0.221116 0.223666 -0.0757799 0.0593385 -0.102428 -0.237671 0.0193695 -0.0353439 0.344829 0.0745144 -0.0638415 -0.092536 0.142835 0.120534 0.163813 -0.103005 -0.368072 -0.332085 0.426969 0.451142 0.271962 0.164637 -0.121986 -0.116487 0.102176 0.262296 0.0360756 -0.413982 -0.566815 -0.109385 -0.0365596 0.479659 0.286689 -0.0670702 -0.203208 0.031283 0.212856 0.316641 0.144473 -0.219331 -0.398113 -0.0130774 0.113146 0.201909 0.354721 0.0120803 -0.198863 -0.145301 0.146956 0.276957 0.362013 0.00106268 -0.432769 0.0456951 0.0832606 0.372291 0.153622 0.0098772 -0.0504247 -0.0935376 0.0519663 0.0508541 0.0121017 0.0877563 0.063845 0.395324 0.218561 -0.0899113 0.147048 -0.184369 -0.0871313 -0.0949126 -0.109113 -0.318806 -0.200107 0.179372 0.0307688 0.370112 0.227024 -0.00671482 -0.0280778 -0.180221 -0.0694478 -0.171772 -0.231754 -0.258588 -0.125696 -0.0577766 0.046835 0.1077 0.0743394 -0.0512489 -0.103267 -0.0834908 -0.0608761 
-0.00454318 0.113891 0.100951 0.0632325 0.107192 0.0439149 -0.0870809 -0.119629 0.0741344 -0.0732426 -0.0801042 0.10407 0.00503888 0.191295 0.0292691 -0.0505984 0.0725322 -0.147261 0.152386 -0.308749 0.0333298 0.158178 0.0581808 -0.0471326 -0.0820159 0.203593 0.220456 -0.310764 0.158267 0.167718 0.281469 0.411536 0.482621 0.210746 0.117312 -0.0282757 0.0242799 -0.163369 0.0933297 0.0547556 -0.330795 0.149116 0.341249 0.723852 0.477188 0.205038 -0.000361493 0.101606 0.0587702 -0.148564 -0.107907 0.0921624 -0.49678 -0.580484 -0.258239 0.113542 0.293795 -0.000135588 -0.0633279 0.000645039 0.04447 -0.15898 -0.178117 -0.178484 -0.146118 -0.059495 -0.466003 -0.364914 -0.407261 -0.00852977 0.0625007 0.0886942 0.0100274 -0.129376 -0.12406 -0.242 -0.0557055 0.244488 -0.365273 -0.199111 -0.118696 0.114739 0.184307 0.0400192 -0.0143752 -0.137907 -0.130267 -0.232868 -0.0821562 0.0318823 0.0690525 -0.50111 -0.168281 0.311396 0.0368132 0.125736 0.0429835 -0.285397 -0.239516 -0.16595 0.144489 -0.0346751 -0.351459 -0.264001 -0.0294888 -0.198756 0.0393266 -0.0294089 0.00153195 0.0978786 -0.121509 0.0955583 0.297488 0.312058 -0.0923333 -0.773347 -0.831949 -0.508824 0.0130352 -0.0390971 
-0.099508 0.00594662 -0.068634 0.165814 -0.0364283 -0.0948485 0.0646706 0.179249 0.211989 -0.0634762 0.0355826 0.0676141 -0.0533719 -0.205962 0.155324 0.0722138 0.15343 -0.13497 -0.192849 0.0393731 0.151766 0.149346 0.0577736 0.00296755 -0.0180855 -0.162146 -0.106122 -0.284349 -0.231794 -0.112605 0.174084 0.319053 0.0589549 -0.0663459 0.162517 0.109549 0.0186569 -0.182028 -0.10827 -0.280614 -0.570113 0.262554 0.260254 0.186889 0.490174 0.24853 0.164259 0.107982 -0.0366268 -0.174127 0.155627 -0.180975 -0.346053 -0.145722 -0.122325 -0.111273 0.354101 0.178402 -0.0996672 0.0763268 -0.17116 -0.164035 -0.145389 -0.290782 -0.128375 0.293159 -0.18559 -0.259328 -0.269264 0.0126239 0.0647487 0.140593 -0.0107977 0.0351859 0.080248 -0.0667561 0.146045 0.234077 0.160137 -0.487774 -0.247475 -0.354837 -0.0106876 -0.0280804 0.121628 -0.162016 -0.0828259 -0.083992 0.0325749 0.344936 0.0557867 -0.0392571 -0.472276 -0.359547 -0.0869722 0.118106 -0.102207 -0.200902 0.0542622 -0.00849874 0.00343896 0.0839746 0.165527 -0.300398 -0.270902 -0.285224 0.112273 0.0584297 0.0793008 -0.0336271 -0.140216 0.115249 -0.250871 -0.280579 0.246824 0.39737 0.304077 0.307909 -0.00014685 0.0475621 
0.0372843 -0.062597 0.00614202 0.112125 0.108791 0.0240481 0.341347 0.178069 0.0550104 -0.0782867 -0.0607766 0.0377333 -0.17439 -0.221535 -0.268049 -0.189118 0.185305 0.22692 0.163269 0.242184 0.157093 -0.234165 -0.148648 0.0137313 -0.151752 -0.200621 -0.114568 -0.0991749 0.00370712 0.273645 0.169598 -0.0189003 0.031461 -0.0389944 -0.0322432 -0.106258 -0.0818771 -0.0350967 -0.0408475 -0.0112481 -0.424215 -0.228442 -0.114745 -0.182775 -0.150495 0.010316 0.0203685 0.0212288 0.0745967 -0.0446557 -0.0664977 0.402879 0.0887242 0.0136877 0.00781756 -0.064115 -0.237582 0.0228668 -0.0364709 0.0699109 -0.0181507 0.118218 0.165574 0.343781 0.210879 -0.00832705 -0.146269 -0.0113647 0.161968 0.01924 0.0323388 0.0455555 0.0396286 0.036187 0.091346 -0.0348292 -0.0790391 -0.231933 -0.374663 0.0636634 0.0330766 -0.0704584 -0.0326194 0.0116136 -0.0888487 -0.0171946 -0.0281107 0.00265605 0.020973 -0.358445 -0.2052 -0.253633 -0.0647276 -0.0419295 -0.0495813 0.138916 -0.0378097 -0.308233 0.0833738 0.0103498 0.165715 -0.114633 -0.0810778 -0.00214985 -0.0219086 0.0209413 -0.0513677 0.0585632 -0.076591 -0.171664 -0.0524743 0.131798 0.248463 0.205878 0.106556 0.258315 0.23816 -0.00216052 -0.0273263 -0.00772603 
0.105046 0.104446 0.179773 -0.15123 -0.213461 -0.251886 -0.368491 -0.129958 0.0757352 0.252298 0.0388401 0.0272406 -0.116589 0.0105752 -0.0664308 -0.323712 0.0778951 -0.470025 -0.414366 -0.207763 -0.0721753 0.149975 0.129828 -0.0470182 -0.00356846 -0.0809306 0.0768787 -0.0271466 -0.325856 -0.189094 -0.180859 -0.131126 0.150529 -0.0420947 0.0745075 0.115993 0.0964721 0.0229635 0.0421653 -0.142982 -0.145493 -0.150541 -0.235161 -0.0648747 -0.121781 -0.0108266 -0.0330994 0.0624189 0.104373 0.0172557 0.0545249 0.355199 0.39248 -0.346454 -0.118196 0.00125205 -0.0816771 -0.148911 -0.0630522 0.0940755 0.0293017 0.00683747 0.11982 0.387525 0.410593 -0.136121 -0.0815135 0.161635 -0.0656388 -0.352285 -0.0409447 0.133944 0.114623 0.150777 0.0400126 -0.10583 0.176309 0.177098 -0.245041 -0.0900607 -0.262635 -0.408477 -0.0201989 0.124647 0.0460682 0.0101897 -0.00154357 -0.0462315 0.0920259 -0.133478 -0.433382 -0.240443 -0.0276725 -0.239346 0.0971969 0.126655 0.032513 -0.0895025 -0.0566592 0.105874 0.0763711 -0.196437 -0.22337 -0.161231 -0.00101127 0.124944 0.108143 0.144004 0.0397602 0.0289629 -0.120761 -0.146141 -0.000614946 -0.17194 -0.0674303 -0.134655 -0.00553911 0.154269 0.00783574 0.0915744 
0.239477 0.13533 0.0361927 0.181387 -0.114729 -0.123111 0.00955303 0.095027 -0.0370219 -0.0240235 -0.00484572 0.0644003 0.0137001 -0.0413137 0.183324 -0.0759499 0.0412224 -0.13696 -0.318193 -0.187861 -0.0220638 -0.221313 0.0946255 0.133335 0.00595562 -0.11497 0.0712933 0.0867334 0.0264189 0.174874 0.0357255 -0.131828 -0.195301 0.11714 -0.0521639 0.0444224 -0.0742965 0.0360782 -0.0599879 -0.249499 -0.170905 0.221321 0.0917607 -0.566245 -0.306428 0.0588962 0.0833657 0.0619743 -0.00130431 -0.178072 0.132012 0.196726 0.1636 0.225735 -0.350412 -0.359055 -0.0127743 0.0678082 0.0325476 -0.0138739 -0.0781728 -0.291579 -0.0311931 0.277505 0.21617 -0.0543267 -0.432219 -0.0173086 0.213966 -0.0289911 0.0418785 0.0891475 0.00382482 -0.210881 -0.108787 0.0467122 -0.0175512 -0.021145 -0.312433 0.413856 0.188393 0.00260619 0.00429745 0.0363841 0.0224957 -0.20661 -0.232954 -0.310399 -0.0217427 0.0207337 -0.241539 0.0922229 0.239827 -0.149956 -0.0598547 0.120004 0.0199423 -0.0761438 0.0703329 -0.260463 -0.108017 -0.274985 -0.10135 -0.0979553 -0.316067 -0.21068 -0.046383 0.0487096 -0.0141199 -0.100909 0.199823 -0.0819371 -0.390841 -0.435632 -0.0993529 -0.175962 -0.101802 0.0041465 0.00517759 -0.0527468 
0.042631 -0.0356342 -0.0559042 0.0867669 0.066905 -0.0460458 -0.128995 -0.169214 -0.210022 -0.170337 0.00683871 -0.00494569 0.140802 0.110408 -0.032455 0.252086 0.0447144 -0.324448 -0.309155 -0.201833 0.0157331 -0.0591361 0.167734 0.0907497 0.117434 0.203682 -0.212179 0.246329 -0.123393 -0.340445 -0.131388 0.163159 -0.0167471 -0.214613 0.0832775 -0.00370214 0.0734974 0.130309 -0.00406941 -0.121589 -0.0244761 -0.0969002 0.0862566 0.119624 0.0397088 0.0636777 0.215441 -0.0421641 -0.0161446 0.0454091 -0.00926875 -0.280075 0.0996889 0.119164 0.274549 -0.0389772 0.0459918 0.116685 0.075661 -0.106473 -0.0376342 0.0757158 -0.132175 -0.231044 0.177751 0.267818 -0.0697102 -0.260753 -0.186399 0.107503 0.127907 -0.0376551 0.0486684 0.114716 -0.0279436 0.0263285 0.457238 0.191139 -0.297396 -0.483193 -0.495392 0.098381 0.0238601 -0.169855 -0.0731031 0.0913875 -0.144802 -0.188196 0.297835 0.0824239 -0.637966 -0.499154 -0.42039 -0.0300244 -0.0926588 -0.128962 0.12256 0.183647 0.188568 0.101111 0.261296 0.27453 0.29635 -0.26351 -0.24659 0.0408665 -0.0345331 -0.154284 0.0542838 -0.0887291 -0.041986 0.0514288 -0.483411 -0.177379 0.4308 0.435717 -0.0459039 0.219456 -0.107714 -0.151626 
-0.0144349 -0.063861 0.18618 0.232133 0.286674 0.29931 0.128734 0.200816 0.230925 0.118516 0.0265868 -0.0614798 0.180763 0.192798 0.0360792 0.336092 0.26051 0.600333 0.477067 0.277038 0.33698 0.056061 0.163091 0.10634 0.035098 0.212956 -0.0219008 -0.133119 0.00932112 0.10865 0.139159 -0.103886 0.0292193 0.184347 0.0503912 0.0597716 0.00400419 0.0483758 -0.0989887 -0.152833 -0.291134 -0.229421 -0.205267 0.0701702 0.187973 0.0629993 -0.0810445 0.0055999 0.111573 0.15229 -0.0411798 -0.201606 -0.324601 -0.114693 0.43104 0.392195 0.106424 -0.171001 -0.120366 -0.0551837 -0.0212874 0.0628171 0.110994 0.249697 0.263028 -0.264667 0.299135 0.259855 -0.222299 -0.24629 -0.0658591 0.0492328 0.00686496 0.21664 0.228947 0.436917 0.279783 -0.0779983 0.0371615 -0.34271 -0.530137 -0.171133 -0.0245938 -0.0614799 0.0233772 -0.011042 0.190805 0.276152 -0.0377043 -0.408402 -0.206872 -0.397222 -0.22298 -0.0143127 0.00941753 -0.0696329 -0.0485176 0.147494 -0.143493 -0.0516535 -0.188317 -0.0538645 -0.0334688 -0.284978 -0.166689 -0.126906 -0.0181592 0.00558291 -0.162494 -0.118463 -0.125621 0.174781 0.0810994 0.401783 -0.473277 -0.245305 -0.132733 -0.191879 0.0051753 0.0743792 
0.12062 0.0108887 -0.0068884 -0.185302 0.00440685 0.0065381 -0.199635 -0.0847875 -0.04645 0.0426412 -0.0374879 0.0768544 0.128684 -0.0763613 -0.36129 -0.204661 -0.111329 0.179613 0.0280535 -0.180113 -0.242954 -0.0753944 -0.017149 0.137925 0.0778731 0.0379792 0.0529298 0.142982 0.268712 0.0775789 -0.142796 -0.301288 -0.152528 0.202824 -0.110112 -0.00802231 0.0535168 0.0799045 0.0986649 0.157599 0.405835 -0.0464636 -0.092139 -0.132349 -0.234205 -0.22259 -0.121169 0.0957688 0.0282457 -0.0725334 0.133976 0.219358 -0.0154352 0.0923522 -0.193378 -0.00172007 -0.264064 -0.195695 -0.0445623 0.0497053 0.07772 0.0724004 0.176862 0.00360061 -0.134909 -0.213762 -0.283674 0.106133 0.0127953 -0.0720404 0.0380488 0.13372 0.00889048 -0.0950184 0.0311579 -0.0823264 -0.337338 -0.267428 0.0459255 0.191081 0.175133 0.280747 0.0118687 0.0267028 0.0803604 0.0264806 -0.0773716 -0.00617466 -0.0648851 -0.100079 0.286214 -0.0318084 0.0286385 0.325198 -0.00730726 -0.0133605 0.0469808 -0.277928 0.103198 0.298423 -0.0332885 0.142519 -0.0903192 0.137926 -0.187754 -0.10693 -0.142665 0.128339 0.100507 0.0249176 0.0693176 0.199329 0.339567 0.115286 0.0846835 -0.402966 -0.564528 -0.441144 -0.100139 0.0526216 
-0.004216 0.177071 0.17122 0.110435 0.00300682 0.0527321 0.0658489 0.296148 0.211188 0.0828637 0.0881627 0.0186791 -0.121716 -0.117702 0.329777 0.356249 -0.0515067 -0.0419009 0.145865 -0.101834 0.146398 -0.129296 -0.0876639 -0.0300143 0.00764681 -0.0881076 0.184576 0.136702 0.181257 -0.0958143 0.0556303 -0.0689379 -0.0947065 -0.0423195 -0.0957878 0.134481 0.0220569 -0.152926 0.028906 -0.0789877 0.135058 -0.017603 0.0981702 -0.125154 -0.228839 -0.252769 -0.112033 0.0248627 -0.0732175 -0.153729 -0.229728 -0.0433168 -0.168448 -0.133178 -0.278086 -0.179908 -0.355434 -0.0776648 -0.078853 0.0875243 -0.0299801 -0.148578 -0.140501 0.0344887 -0.173635 0.0859485 -0.159522 -0.535431 -0.112686 -0.0776079 -0.0307128 0.00740901 0.0693867 -0.229104 -0.294281 0.0232809 -0.160422 0.0395995 -0.0261254 -0.088319 -0.413099 -0.00638964 0.0525154 0.025652 -0.00448476 -0.173642 -0.295995 -0.1334 0.0224371 0.00865689 0.15113 0.105481 -0.243856 -0.274785 -0.0204995 0.0305503 -0.0169535 0.0375026 0.113137 0.237442 0.33483 0.206385 0.186638 0.0514282 0.0367429 -0.103277 0.0871452 0.0540018 -0.0839526 -0.177398 0.0819051 0.120054 0.277372 0.179752 -0.0944468 -0.286422 0.0110324 -0.0548768 0.120089 0.0577847 
-0.00991228 -0.0881164 -0.153272 -0.137197 -0.234235 -0.285071 -0.228635 -0.148902 -0.160266 0.0837304 -0.0678646 -0.0408271 -0.00652902 0.0972878 0.164187 -0.0279731 0.0571079 -0.305052 -0.323181 -0.015289 -0.0328258 0.0999078 0.0379963 -0.0332466 -0.047592 -0.0130866 -0.000633774 0.01465 0.0258759 -0.034194 0.0576004 0.226011 -0.0237274 0.153054 0.113619 -0.075791 -0.111348 -0.00809308 -0.0536876 0.0342683 0.121641 0.155291 0.224234 -0.0137833 -0.0794018 0.0789743 0.00588265 -0.0315261 -0.0126283 0.0406302 -0.103073 0.0213604 0.141274 0.183759 -0.0204539 -0.0604149 -0.0546221 0.133413 0.00927583 -0.105261 0.0232334 0.00082217 -0.181234 0.108986 -0.0989639 0.0503884 0.226809 -0.108195 0.0424796 0.0584744 0.0608943 -0.0836289 0.0158932 -0.00877256 0.071412 0.145834 -0.0256837 0.126607 0.291108 0.239299 0.236203 -0.111592 -0.040159 -0.0493527 -0.0484026 0.0389909 0.26997 0.0446554 -0.0586548 -0.0112274 0.187855 0.330296 0.11045 0.0213576 -0.00811589 -0.0855477 0.119407 0.515006 0.255344 0.020416 -0.471443 -0.336491 0.136657 0.168268 0.308598 0.246329 0.0474427 -0.105517 0.0714801 0.0728388 0.260796 -0.158437 -0.374344 -0.373717 -0.227619 0.280682 0.540278 0.270812 -0.0442074 -0.0379451 
-0.0130432 0.149688 -0.00231302 -0.213238 -0.29255 -0.338478 -0.235551 -0.140115 0.358152 0.433781 0.134738 0.112109 -0.106199 0.0320428 0.0967318 -0.0591706 0.190695 -0.504577 -0.479952 -0.0501068 0.403636 0.389991 0.0435967 0.12106 0.0585729 0.00129031 0.1417 0.237795 0.00248156 -0.101854 -0.170409 -0.237463 0.218408 0.00498927 -0.200613 0.00633788 0.0318701 -0.0988776 0.163615 -0.0764392 0.0724405 0.030588 -0.0899395 -0.937553 -0.769938 -0.595005 -0.205363 0.205358 0.0995218 -0.0344806 0.103107 0.168389 0.278458 -0.0284572 0.171496 -0.0879674 -0.675544 -0.484812 -0.0755575 0.0471082 0.100225 -0.060169 -0.00471478 0.247299 -0.0654317 0.0130483 -0.00463088 -0.128837 -0.188615 -0.272518 -0.133854 0.172131 -0.00735668 0.171746 -0.0973621 0.0183132 0.0302127 0.0383845 -0.309455 -0.221545 -0.372554 -0.455503 -0.0579537 0.130512 0.0855673 0.253061 0.12733 -0.228793 -0.0153654 0.200357 -0.65928 -0.115444 -0.0189766 -0.405228 0.0642206 0.126442 0.0862729 0.0275843 -0.339914 -0.145244 0.360759 0.0432501 0.253956 0.0442112 -0.0450739 0.0766539 0.0518732 0.191372 0.165509 0.0234026 -0.204654 -0.284262 -0.0190727 0.0874067 0.321234 0.187327 0.251901 0.349698 -0.0359924 0.221937 
-0.012668 0.144104 -0.0106526 -0.0605362 -0.248547 -0.236335 -0.278437 -0.203109 0.104676 0.0385868 0.154499 0.0731773 0.143685 -0.179845 -0.0159416 -0.0151779 -0.132177 -0.0315993 -0.0652223 -0.183329 -0.0501508 0.100389 0.176904 0.186145 0.166188 0.0200451 0.0180116 0.0258359 -0.027881 0.0421283 -0.24287 -0.395446 0.0503793 -0.0501153 0.157746 0.127978 0.178504 0.0394879 -0.115103 0.162252 0.243822 -0.279774 -0.358548 -0.204672 -0.332062 -0.0479938 0.0129268 0.138992 0.21699 -0.0509036 -0.0233643 -0.298451 -0.274903 -0.0780083 -0.275076 0.0163611 -0.0894818 -0.0806935 0.0674343 0.11153 0.163751 0.0759814 0.0408523 -0.294714 -0.328305 -0.0654344 -0.213725 0.00212602 -0.08977 -0.00896577 -0.0302493 0.00380229 -0.0202167 -0.0359742 0.0454918 -0.326313 0.141294 -0.220207 -0.0487718 0.013659 -0.337389 0.0654619 -0.0293287 -0.034314 0.0411685 0.052009 0.249389 0.254553 -0.0499618 -0.666248 -0.343393 0.370954 0.195416 -0.0806093 0.103164 0.0273259 -0.10868 -0.110291 0.0634266 0.581685 0.237956 -0.0807784 0.12797 0.114235 0.0899541 0.0349296 -0.12249 0.0912737 -0.0163154 -0.0866327 -0.282343 -0.0436058 -0.0190496 0.130188 -0.0128316 0.44399 0.429544 0.180521 0.033449 -0.0107975 
0.012105 0.153035 0.0638904 -0.0924304 -0.145052 -0.370717 -0.0210286 -0.151501 0.138428 0.0749202 0.0261688 -0.0538157 -0.0164313 -0.163733 -0.136356 -0.111283 -0.0151965 0.0508532 0.112024 0.151216 -0.0928574 -0.091741 0.0670411 0.0904764 0.0546939 0.0893075 0.127946 0.330543 0.120279 -0.0688344 -0.172749 0.144554 0.138655 -0.0729501 0.0788559 -0.0360466 0.0426664 0.0703595 0.16578 0.451099 0.294022 -0.48555 -0.689218 -0.250025 -0.0143395 -0.0237897 -0.0849542 -0.0655487 0.0979467 0.175764 0.0882192 0.286058 0.384633 0.528957 0.425182 0.167701 0.126248 0.0900824 -0.0105886 0.0197746 0.0556393 0.200834 0.229837 0.283746 0.242181 0.169016 0.546831 0.668509 0.539967 0.217119 0.0790522 -0.0854712 -0.0316624 0.189114 0.0267066 -0.183114 -0.120775 -0.0806089 0.183568 0.266541 0.188114 0.161134 -0.0328655 0.0860816 0.0754808 0.0107976 0.00228322 0.0412651 -0.195366 -0.443077 -0.471665 -0.11645 0.0696757 0.282676 -0.0430371 -0.0482737 -0.0925461 -0.239036 -0.128657 0.0172695 0.0559651 -0.134671 -0.199853 -0.0433602 -0.229552 0.0355845 -0.0236151 -0.071787 -0.0312616 -0.259732 -0.315333 0.117178 0.121581 0.0502686 -0.390484 -0.0510244 -0.201526 -0.126727 -0.0433273 0.00772203 
-0.0173088 -0.0148764 -0.0600785 0.3472 -0.118059 -0.224815 -0.040516 -0.0158184 0.248139 0.163253 0.161448 0.0322456 0.0525322 0.14815 0.100082 0.214079 0.0548473 -0.267284 -0.307368 0.0765597 0.370907 0.299471 0.123801 0.0681416 0.0116277 0.223617 0.215389 -0.314571 -0.0987348 0.142742 -0.039044 -0.029141 0.034598 0.280324 0.0729343 0.100066 0.100167 0.193361 0.182165 -0.0393255 -0.277862 -0.0303067 -0.224463 -0.589819 -0.142118 0.0696937 0.104591 -0.0734643 -0.0693796 0.05645 0.254029 0.36134 -0.0507943 0.174442 -0.167844 -0.23741 -0.0442987 -0.0313715 -0.0916528 -0.0779606 0.0361214 -0.0203051 -0.00734 0.10651 0.0420967 0.078165 0.104859 0.334204 0.123822 -0.0289727 -0.0501192 0.0509608 0.0444802 0.0991692 -0.155324 -0.244987 -0.15538 -0.238945 0.169523 0.305621 0.197855 -0.174123 -0.104978 -0.00551304 0.0350652 -0.0227357 -0.138464 -0.186522 -0.186923 0.0247588 0.246819 0.164134 0.192117 -0.110331 -0.11305 -0.0769428 -0.102429 -0.452044 -0.259275 -0.123396 -0.0164191 -0.233604 -0.0273649 -0.168966 -0.31586 -0.228261 -0.0810383 -0.0335978 0.052343 -0.259129 -0.317672 -0.0939308 -0.0965984 -0.125255 -0.171056 0.157806 0.088507 0.215381 -0.099873 0.059789 
0.0513088 0.000320117 -0.0787076 -0.16483 -0.104421 0.145075 0.0319955 -0.0440483 0.220971 0.221464 0.140227 0.0127581 0.095077 -0.0638634 -0.00922602 -0.0106153 -0.0294532 -0.00651989 -0.105551 -0.196633 0.0907376 0.183127 -0.117153 0.0931912 -0.00735172 -0.000853202 0.176022 0.35436 0.281365 0.116173 0.000744144 -0.445231 -0.0971704 0.0942183 -0.271124 0.0210867 0.107609 -0.0504544 0.199029 0.0774788 0.60637 0.294648 -0.0072889 -0.903773 -0.742819 -0.484129 -0.185678 0.13117 0.169945 0.0517648 0.137406 0.274981 0.161224 0.399297 -0.0521958 -0.216763 -0.631868 -0.440603 -0.181682 0.0963174 0.0773992 -0.0421299 -0.118104 -0.171387 -0.273294 -0.0253779 0.130309 -0.0903394 -0.228956 -0.339906 -0.123541 0.16881 0.0810961 -0.0131924 -0.18134 -0.268938 -0.347797 -0.213134 0.466677 0.0952312 0.00258034 0.0261929 -0.0806525 0.0352333 0.0479952 0.00624496 -0.0848665 -0.0599629 0.168166 0.115354 0.180085 0.128841 0.0405782 -0.195656 0.045429 0.125846 0.158407 -0.188027 -0.0477228 -0.0959157 -0.238569 -0.016713 -0.0886867 -0.152082 -0.128906 0.204653 0.0552709 0.0383309 0.175229 -0.022669 0.0654282 -0.109276 0.0359868 0.141048 0.172383 -0.251963 -0.329171 -0.141384 -0.0157883 0.151519 
-0.0586515 0.0262887 0.0351098 -0.0717812 -0.0115059 0.159606 0.0698689 -0.0086369 0.117202 -0.0192685 -0.00690854 0.0840922 -0.0174542 -0.0891743 0.0154315 -0.17401 -0.0377488 -0.0842046 -0.0740717 -0.090741 -0.0544427 -0.0547646 0.0366714 0.000550181 0.0793171 -0.181964 -0.143091 0.0956045 -0.204088 0.152415 0.243716 -0.125997 -0.12991 -0.2441 -0.0889011 0.0914736 0.0514519 -0.164711 -0.163768 -0.251721 -0.0437983 0.292837 0.484208 -0.570518 -0.693819 -0.428577 -0.0332331 0.0146298 -0.0172819 -0.168221 -0.364893 -0.0773147 0.292614 0.323186 0.164338 0.0177725 -0.491549 -0.312216 0.0502679 0.0236671 0.0547915 -0.199793 -0.33277 -0.137341 0.0704103 0.272238 -0.0430773 -0.441192 -0.230043 -0.429994 -0.0247157 0.133885 0.111991 -0.247971 -0.203111 -0.287496 -0.0952095 0.192503 -0.334268 -0.21929 -0.440661 -0.21917 0.076624 0.0980293 0.12712 -0.0283653 -0.00730196 -0.143109 -0.0995167 -0.0130438 -0.331414 -0.0895985 0.124672 -0.141393 0.116527 0.0855721 0.0701664 0.155532 0.335919 0.140613 -0.179271 -0.0406406 0.0816256 0.0447818 0.179422 0.0752142 0.205831 0.135303 0.138901 0.184869 0.324928 0.0122452 0.107242 0.201044 0.138216 -0.0913602 0.147011 0.230918 0.149517 0.160015 
-0.111314 -0.0111094 0.00765951 0.12265 0.0240059 -0.00338866 0.224674 0.278917 0.0992239 -0.0761662 0.0646328 -0.138746 -0.103658 -0.00112317 0.0628282 -0.00900679 -0.137153 0.0605563 0.0220961 0.375585 0.101642 0.0779337 -0.0134335 -0.046405 -0.0887693 -0.0591643 -0.0767429 -0.358319 0.0465432 -0.257805 0.0456051 0.550923 0.354371 -0.00636814 0.105493 -0.00430138 0.0501105 -0.148594 -0.119269 0.17085 -0.146484 -0.117415 0.110712 0.583662 0.326926 0.0817686 0.0277859 -0.0407455 -0.0183707 0.0568176 -0.183018 -0.0421186 -0.195783 -0.0771389 -0.102455 0.0635358 0.0498515 0.152348 0.0337751 -0.0554643 0.059752 0.0414145 -0.119118 -0.267536 -0.135188 -0.145835 0.0990983 -0.21171 0.24382 0.248169 0.0433669 -0.11922 -0.0308148 0.0548873 0.0271464 -0.266102 -0.280522 0.0706875 -0.108352 0.111124 0.607306 0.166099 0.157285 -0.0681201 -0.0663205 -0.0199087 0.0820518 -0.0894343 -0.32391 -0.147573 0.130527 0.0472271 0.258652 0.188439 -0.0580861 -0.0518134 -0.0571564 -0.118175 -0.001047 0.143959 0.132835 0.107892 0.0464838 -0.131183 -0.132167 -0.00565439 0.0261116 -0.110747 -0.0370913 -0.00494638 -0.124849 0.125999 0.297554 0.26019 -0.0466868 -0.0449909 -0.526101 -0.15994 -0.0305934 -0.0354582 
0.124784 0.042632 -0.0578391 -0.14422 -0.0700872 -0.127927 -0.0380756 -0.309335 -0.353925 -0.213727 -0.137816 0.0353621 0.170888 0.0157585 -0.197667 -0.197495 -0.0211502 0.189113 0.116747 -0.140171 -0.561548 -0.347197 0.0710335 -0.0112438 0.134067 -0.0165957 -0.139447 -0.10805 -0.222815 -0.0465763 0.00902094 -0.324985 -0.291213 -0.184199 0.0922121 0.0631989 0.117253 -0.0904965 -0.0431582 -0.179386 -0.367255 -0.297926 -0.23361 -0.0652204 -0.095367 -0.0213375 0.0358941 -0.0377199 0.060652 -0.173147 -0.0647016 -0.271206 -0.191251 0.314278 0.256578 0.116558 0.22352 0.00849026 0.116366 -0.00121298 0.0577195 -0.162645 0.0150022 -0.196979 -0.162603 0.165582 -0.167301 0.231817 0.463221 0.144588 -0.0357839 0.0796912 0.00304238 0.00335488 -0.0120353 -0.106843 -0.238916 -0.327508 -0.447437 0.157809 0.284119 0.346523 0.0330565 -0.00912384 -0.0657641 -0.074703 0.0181255 -0.289369 -0.281061 -0.320005 -0.300314 0.306823 0.388649 0.122045 -0.0201473 0.0661774 0.00641837 0.0415816 0.399547 0.390256 0.298962 0.198328 0.416683 0.351355 0.137734 -0.0689508 -0.129163 -0.0797328 -0.108437 0.0178543 0.0918608 0.369994 0.158147 -0.155963 0.221905 0.322234 0.121649 -0.143441 0.0057231 -0.0308011 
-0.166707 -0.254822 -0.3711 -0.45751 0.167929 -0.00230128 0.125122 -0.205203 -0.298137 -0.191208 -0.0677811 0.0721847 0.0959701 -0.0994106 -0.431219 -0.313962 -0.038375 -0.198739 -0.0778543 0.108468 -0.472114 -0.224887 0.0170549 0.0758812 0.0445096 0.123776 0.129586 0.353967 0.190317 0.0389725 -0.0302428 0.27894 0.14333 -0.0689713 0.125943 0.0885941 0.0459837 0.0988191 0.10676 0.260001 0.080706 -0.416404 -0.458828 0.103916 -0.15592 -0.0232195 0.0281899 -0.0185241 0.090377 0.208739 0.068437 0.0676431 0.334598 0.27117 0.0466763 0.0288597 -0.132867 -0.0982805 0.0635122 0.0255301 0.187236 0.223587 -0.188561 -0.288552 0.0598698 0.0698432 0.0191935 0.0249176 -0.0343251 0.246245 0.0758723 0.0313776 0.146705 0.0699051 -0.271499 -0.596301 -0.0444195 -0.0873363 -0.101879 0.14862 0.127077 0.320922 0.105712 -0.0352941 0.0925736 0.169309 -0.062725 -0.326194 0.175452 0.0903244 -0.200635 -0.0154031 -0.0261683 0.462515 -0.0161572 0.0763846 0.036599 -0.181951 -0.430939 -0.350855 0.0581704 0.417274 -0.110413 0.244994 -0.0311898 0.0656037 0.0769069 -0.00806785 0.0650772 -0.199968 -0.267869 -0.189934 -0.120587 -0.0345082 0.288296 0.216915 -0.222394 -0.0363415 0.119152 0.0258219 
0.0750754 0.258228 0.294782 0.202269 0.110842 -0.00788045 -0.0838398 0.038166 -0.0373092 -0.0268522 -0.0299906 0.0549182 -0.0282782 -0.0671247 -0.0915425 0.10851 0.222502 -0.192317 -0.11082 -0.390658 -0.143313 0.211783 0.12711 -0.0198173 -0.0447335 -0.0960533 -0.0477408 0.101667 -0.0366102 -0.332025 -0.441363 -0.118603 -0.0210347 0.27432 -0.00811561 -0.00668407 -0.0627815 0.00933188 0.0680623 0.0634321 -0.113594 -0.227515 -0.284584 0.404117 0.440545 0.135242 0.102296 -0.0708385 -0.0366472 -0.117567 0.0873525 0.164579 0.294404 -0.257359 0.112258 0.380688 0.228204 -0.172854 -0.13654 -0.0446435 0.0344763 -0.0127805 0.35078 0.463122 0.358439 -0.236973 -0.142599 -0.0842862 -0.170125 -0.325756 0.0149451 0.0733474 0.054689 0.0321085 0.0959609 0.228512 0.333937 0.10283 -0.253955 -0.493577 -0.444987 -0.379277 -0.0577261 0.0182851 0.0027957 0.0444892 -0.247372 0.0874368 0.279843 -0.107677 -0.114519 -0.618883 -0.372105 -0.0342283 -0.019009 0.0698313 -0.00923583 -0.0304693 -0.096105 0.0944398 0.460087 0.00127238 0.245265 -0.0297185 -0.185775 0.0101862 0.0559218 -0.0512522 -0.167177 0.000714258 -0.269445 0.245503 0.224269 -0.0423303 0.0996079 -0.043994 0.0294329 -0.0492456 -0.0275736 0.0920759 
0.0716006 -0.172302 0.0916343 0.200634 0.0807877 0.260267 0.0675614 -0.0719914 -0.0246449 -0.0848006 -0.0227948 0.0993099 0.087195 0.148349 0.330393 0.0611313 -0.00329685 0.113871 0.0279885 -0.0817543 -0.363535 -0.322498 -0.151725 0.134362 -0.0112174 -0.0599757 -0.229808 0.106236 0.0195178 0.0164049 0.0312773 -0.158393 0.0042428 -0.0400031 0.00528342 0.11101 0.0383301 -0.11898 -0.154128 -0.347225 0.110643 0.190739 0.395607 -0.321852 -0.171924 -0.0853427 0.0290487 0.0170415 0.0517539 -0.144554 -0.210809 -0.610654 -0.218317 -0.334384 -0.12631 0.10935 -0.0426297 0.265457 0.134569 0.0100542 0.00458331 -0.212444 -0.344284 -0.0918206 -0.184872 -0.216067 0.0659303 -0.149722 0.297231 0.176663 0.120205 0.107877 0.0630719 -0.122517 0.060029 0.325348 0.228054 0.0127915 -0.10885 -0.05654 -0.231181 0.0523847 0.0259932 0.0135703 0.0666495 0.0342452 0.259518 0.20335 0.227768 -0.338957 -0.28716 -0.164787 0.0477474 -0.265979 -0.0163085 0.0552624 0.149366 0.459744 0.410943 0.168955 -0.0997575 -0.249619 -0.170544 -0.425712 -0.0203424 -0.106721 0.0832101 -0.0106473 0.0107215 0.0448579 0.383017 0.328627 -0.0377539 -0.124431 -0.483518 -0.447436 -0.105134 -0.201621 0.0675912 0.0765172 
